%YAML:1.0
---
opencv_ml_svm:
   format: 3
   svmType: C_SVC
   kernel:
      type: RBF
      gamma: 5.0625000000000009e-01
   C: 1.2500000000000000e+01
   term_criteria: { epsilon:1.1920928955078125e-07, iterations:1000 }
   var_count: 12
   class_count: 3
   class_labels: !!opencv-matrix
      rows: 3
      cols: 1
      dt: i
      data: [ 0, 1, 2 ]
   sv_total: 551
   support_vectors:
      - [ -1.07269263e+00, -1.64765620e+00, -1.78267682e+00,
          -4.76449996e-01, -1.28537130e+00, -1.52453601e+00,
          -5.69765508e-01, -7.05288053e-01, 1.97577083e+00,
          2.40533233e+00, -2.28023186e-01, 3.09444833e+00 ]
      - [ -4.45213616e-01, -5.44553638e-01, -2.94042915e-01,
          -7.53572732e-02, -8.39061737e-02, 1.82960466e-01,
          -1.15719426e+00, -1.27647686e+00, 1.17694938e+00,
          1.12677610e+00, 1.08823419e+00, 1.01459908e+00 ]
      - [ -1.17976534e+00, 1.34064794e+00, 8.92832220e-01,
          -1.18220377e+00, 1.08673370e+00, 4.24164176e-01,
          -5.91970861e-01, -5.62449992e-01, -4.96436715e-01,
          -7.54289269e-01, 8.35585475e-01, -7.34259009e-01 ]
      - [ -1.49623096e+00, 1.89724708e+00, 1.58135593e+00,
          -2.02265549e+00, -1.22315538e+00, -1.02762771e+00,
          -1.42620575e+00, -1.00419712e+00, -1.01386952e+00,
          -1.35529196e+00, 9.84120071e-01, -9.63951588e-01 ]
      - [ 2.22443247e+00, 6.94051564e-01, 1.58723474e+00, 2.17366052e+00,
          -5.73222220e-01, 7.63042390e-01, 2.07849219e-01,
          1.81235158e+00, -2.49058962e+00, -1.59562266e+00,
          -1.42528832e-01, -1.01119757e+00 ]
      - [ -4.28031743e-01, -1.49324417e+00, -1.10855711e+00,
          1.67319804e-01, -2.31380367e+00, -8.92372966e-01,
          -7.15535581e-01, 7.19316378e-02, -1.42299426e+00,
          -1.30177844e+00, -4.73485827e-01, -9.49962676e-01 ]
      - [ -1.18613994e+00, 1.93396223e+00, 2.04670691e+00,
          -1.46218204e+00, 1.60669363e+00, 8.27243626e-01,
          4.93292928e-01, -1.28560498e-01, -1.24279715e-01,
          -7.10121155e-01, 2.82519817e-01, -7.11092651e-01 ]
      - [ -5.99112630e-01, -1.34609544e+00, -1.25016344e+00,
          -3.36342245e-01, -1.78427625e+00, -1.01297760e+00,
          7.56555200e-01, 1.31223515e-01, 7.74200737e-01, 9.76396382e-01,
          -2.47918582e+00, 8.17376196e-01 ]
      - [ 1.34338766e-01, -9.56416905e-01, -1.30509210e+00,
          1.22351563e+00, 7.56477773e-01, -7.79359818e-01,
          -1.32231140e+00, -1.47248495e+00, 2.24139786e+00,
          2.69445300e+00, 1.32985532e+00, 3.66475058e+00 ]
      - [ -3.31180930e-01, -1.14268541e+00, -5.31579494e-01,
          6.83761477e-01, 4.74062055e-01, 1.44962728e+00, 9.26826000e-01,
          6.15576625e-01, 1.14627314e+00, 1.66471875e+00,
          -2.03585774e-01, 1.80179250e+00 ]
      - [ 2.45619965e+00, 2.10978866e-01, 1.07698929e+00, 3.41445804e+00,
          6.90933764e-01, 1.42420733e+00, 8.91125858e-01, 2.03416300e+00,
          -1.98238361e+00, -1.48276329e+00, 1.84399001e-02,
          -9.92184401e-01 ]
      - [ -1.40523398e+00, 8.83610129e-01, 3.19355816e-01,
          -1.80665052e+00, 7.26065576e-01, -3.45646918e-01,
          -9.29709017e-01, -6.92586958e-01, -1.18495584e-01,
          6.63382262e-02, 9.56346452e-01, -1.63275957e-01 ]
      - [ 1.88109770e-01, -9.67903852e-01, -6.01621270e-01,
          1.26779750e-01, -2.31667972e+00, -1.00074542e+00,
          -1.13725185e+00, -6.92862272e-01, -1.04501688e+00,
          -1.39158905e+00, 2.44281545e-01, -9.72720861e-01 ]
      - [ -1.71718344e-01, -1.08537602e+00, -1.52795255e-01,
          6.39828682e-01, -6.62135363e-01, 1.03859830e+00,
          3.28819299e+00, 2.58943605e+00, -5.07405102e-01,
          -1.42115578e-01, -3.10232425e+00, -3.36465955e-01 ]
      - [ -4.32067603e-01, -3.27231258e-01, -2.45179832e-01,
          3.83243859e-02, 6.25809193e-01, 2.59762824e-01,
          -6.29193187e-01, -7.84322083e-01, 8.33666325e-01,
          9.82981384e-01, 8.05325508e-01, 8.25803578e-01 ]
      - [ -3.39782804e-01, -5.14173150e-01, -7.45878220e-01,
          -1.10633187e-01, 3.73578042e-01, -4.20796752e-01,
          -9.24329519e-01, -1.04813766e+00, 1.36571276e+00,
          1.62986195e+00, 9.33086812e-01, 1.74691677e+00 ]
      - [ -1.54105306e-01, 4.35085371e-02, 2.26619974e-01,
          -1.71325520e-01, 6.69846594e-01, 6.10270262e-01,
          2.15451822e-01, -2.09233593e-02, 2.35964835e-01,
          -8.04211423e-02, 2.23619401e-01, -2.87205577e-01 ]
      - [ 8.24399114e-01, 2.39045548e+00, -1.73729643e-01,
          -9.60804999e-01, 6.27935886e-01, -1.83763814e+00,
          -9.11334097e-01, -4.90764976e-01, -1.22098160e+00,
          -1.43501520e+00, 8.30010653e-01, -9.82448757e-01 ]
      - [ 7.27909029e-01, 1.33805096e+00, 3.37585270e-01,
          -2.51213033e-02, 1.07233322e+00, -7.33764589e-01,
          -1.13137031e+00, -9.55497265e-01, -2.43230820e-01,
          -4.20044750e-01, 1.20263422e+00, -5.37558079e-01 ]
      - [ 2.22361016e+00, 1.48412794e-01, 6.56604245e-02, 2.29358220e+00,
          4.39481810e-02, 3.52421314e-01, -1.30795121e-01,
          6.00117922e-01, -1.18747342e+00, -1.06925762e+00,
          3.34325880e-01, -8.74508262e-01 ]
      - [ 2.66549885e-01, 4.44109529e-01, 1.01133645e+00, 3.78144294e-01,
          1.00229847e+00, 1.26513946e+00, 3.17435503e+00, 2.53128719e+00,
          -1.43321741e+00, -9.84552383e-01, -1.51189864e+00,
          -8.41093302e-01 ]
      - [ -1.03325970e-01, -8.06112945e-01, -1.00062585e+00,
          7.66290784e-01, 5.21039069e-01, -2.47138083e-01,
          1.31846261e+00, 9.53988791e-01, 4.84230638e-01, 6.94339573e-01,
          -7.67906845e-01, 4.74365413e-01 ]
      - [ 1.67943418e+00, 1.79293945e-01, 1.09461248e+00, 2.47888756e+00,
          3.91885757e-01, 1.43855107e+00, -7.88243532e-01,
          2.35897705e-01, -1.42515075e+00, -1.43054056e+00,
          1.01809573e+00, -9.81484771e-01 ]
      - [ 4.20931488e-01, 1.67812079e-01, 5.92475176e-01, 4.76928651e-02,
          -6.25077188e-01, -2.01210883e-02, 1.97890866e+00,
          2.04513311e+00, -1.41415226e+00, -1.00118339e+00,
          -2.27679181e+00, -8.47903728e-01 ]
      - [ 7.83084989e-01, -5.44147253e-01, 3.98021331e-03,
          1.99134147e+00, -1.50993109e-01, 1.14162982e+00,
          8.78879249e-01, 1.35658288e+00, -1.77748609e+00,
          -1.50747406e+00, -4.32518035e-01, -9.96827900e-01 ]
      - [ -4.86166030e-01, -3.71278584e-01, -6.43816888e-02,
          -1.45530075e-01, 6.81065023e-01, 6.82769537e-01,
          1.58574283e-01, 1.07412510e-01, 3.30568343e-01, 5.96113622e-01,
          2.74816662e-01, 3.63152325e-01 ]
      - [ 6.57814741e-01, -1.84726730e-01, -7.26478398e-02,
          7.42341101e-01, 2.33402073e-01, 7.30686411e-02, 6.23466313e-01,
          6.43171847e-01, -3.71187329e-02, 3.24003935e-01,
          -2.96560645e-01, 7.72950798e-02 ]
      - [ 1.28057158e+00, 5.07831037e-01, -5.95814884e-01,
          1.15155196e+00, 1.11040640e+00, -8.30118001e-01,
          3.34552675e-01, 8.84308964e-02, -5.65025806e-02,
          -5.04828393e-01, 1.50358781e-01, -5.92118382e-01 ]
      - [ 1.34532130e+00, -1.77056994e-02, 3.93582523e-01,
          1.12951672e+00, -2.31982768e-01, 2.45476410e-01,
          3.15906072e+00, 3.51911044e+00, -1.89905739e+00,
          -1.32521868e+00, -2.70691085e+00, -9.56245661e-01 ]
      - [ 8.20630729e-01, 1.08483642e-01, 9.62929964e-01, 1.29626596e+00,
          7.81633854e-01, 1.65693927e+00, 5.39017582e+00, 4.19209003e+00,
          -1.30791318e+00, -5.30928552e-01, -2.92962456e+00,
          -6.08276069e-01 ]
      - [ 3.92770976e-01, -3.60892862e-01, 2.88825870e-01,
          4.92904752e-01, 1.98408097e-01, 8.69051874e-01, 1.50258946e+00,
          1.52754807e+00, -5.69826245e-01, -2.10681960e-01,
          -8.79833996e-01, -3.89243007e-01 ]
      - [ 2.90956116e+00, 2.30485058e+00, 7.05251992e-01, 7.82252476e-02,
          -8.83971572e-01, -1.74616861e+00, -1.32792819e+00,
          -1.39689910e+00, 1.07690431e-01, -1.36413717e+00,
          9.47906852e-01, -9.66142118e-01 ]
      - [ 1.40553916e+00, -3.11540931e-01, 2.56691694e-01,
          2.22665620e+00, 6.49055779e-01, 1.04469943e+00,
          -1.45319343e-01, 1.08896323e-01, -3.24723065e-01,
          -3.99611503e-01, 5.95265150e-01, -5.23934543e-01 ]
      - [ 6.36519969e-01, 9.00480747e-01, 3.45696777e-01, 4.42645431e-01,
          8.46500695e-01, -6.58529103e-02, 2.05503941e-01,
          3.11810166e-01, -9.40805554e-01, -8.87849331e-01,
          2.18300253e-01, -7.99075484e-01 ]
      - [ 1.77022839e+00, -9.77259949e-02, 3.09211522e-01,
          2.23266625e+00, 3.63323122e-01, 6.98725641e-01, 1.12089217e+00,
          1.61253142e+00, -1.30706692e+00, -9.61457074e-01,
          -4.34763283e-01, -8.31433296e-01 ]
      - [ -6.16156459e-01, -6.90542996e-01, -4.79223400e-01,
          -2.97400445e-01, 1.01418340e+00, 8.34206641e-01,
          -1.35090515e-01, -4.41901803e-01, 1.11143994e+00,
          1.07334065e+00, 5.92888415e-01, 9.43375885e-01 ]
      - [ -1.38164234e+00, 1.90164292e+00, 2.13244104e+00,
          -2.04084373e+00, -1.54222214e+00, -8.36450219e-01,
          -1.05882490e+00, -6.88760757e-01, -1.35790956e+00,
          -1.42355084e+00, 3.36851060e-01, -9.79961455e-01 ]
      - [ -1.03251314e+00, 9.53022465e-02, -1.97637141e-01,
          -8.22428286e-01, 1.69799984e-01, -5.81832945e-01,
          -9.53934789e-01, -9.83811021e-01, 5.67531705e-01,
          4.34375733e-01, 8.68404925e-01, 1.89305186e-01 ]
      - [ 4.00224924e-01, -5.93421280e-01, -3.52908760e-01,
          2.81585038e-01, -2.31274104e+00, -8.72229517e-01,
          -1.17547131e+00, -2.12699264e-01, -1.41614091e+00,
          -1.47345042e+00, 3.40991288e-01, -9.90364492e-01 ]
      - [ -9.41950202e-01, -1.65333164e+00, -1.75739467e+00,
          -1.16367733e+00, -2.62575984e+00, -2.29066467e+00,
          -1.61521435e+00, -1.56291354e+00, 1.82565594e+00,
          1.72532761e+00, 8.14292252e-01, 1.89848650e+00 ]
      - [ -1.95124358e-01, -1.10208797e+00, -9.47591841e-01,
          6.35116816e-01, -6.56318069e-02, -7.21789971e-02,
          2.05849573e-01, -2.06745341e-01, 1.55524909e+00,
          2.05721188e+00, -1.04060084e-01, 2.45670295e+00 ]
      - [ 1.28603861e-01, 1.09671950e+00, -1.37123036e+00,
          -8.82422090e-01, 1.05435133e+00, -2.35176349e+00,
          -9.66894448e-01, -7.36452758e-01, -1.44120917e-01,
          -2.55181909e-01, 9.40878987e-01, -4.22385663e-01 ]
      - [ -1.22976368e-02, 2.43032932e-01, -3.20723020e-02,
          -1.87375829e-01, -6.95435166e-01, -7.29373157e-01,
          9.52727571e-02, 3.09579760e-01, -8.53819251e-01,
          -7.75153697e-01, -5.46862245e-01, -7.44903207e-01 ]
      - [ 2.95085835e+00, 1.39172375e+00, 2.10955119e+00, 1.02956378e+00,
          -2.52290100e-01, 3.97205085e-01, 2.68142819e-01,
          4.38447565e-01, -1.14267504e+00, -1.17579627e+00,
          -1.65989682e-01, -9.12041485e-01 ]
      - [ 2.71461427e-01, -3.39921594e-01, 1.87159970e-01,
          6.26303136e-01, -4.94742572e-01, 4.96269077e-01,
          2.99350452e+00, 3.66938615e+00, -1.90517795e+00,
          -1.19382203e+00, -2.85486984e+00, -9.17896628e-01 ]
      - [ 6.79464579e-01, -3.65456372e-01, 2.29406342e-01,
          1.08098066e+00, 7.15923071e-01, 1.07703459e+00, 4.12070751e-01,
          3.48406225e-01, 1.23663925e-01, 3.97434205e-01, 2.15945125e-01,
          1.51216924e-01 ]
      - [ -2.94489950e-01, 1.10211670e+00, -7.50607178e-02,
          -1.08457945e-01, 1.05098617e+00, -2.73860931e-01,
          -1.42967503e-03, 1.17341928e-01, -5.63632131e-01,
          -3.97596031e-01, 3.40275079e-01, -5.22580743e-01 ]
      - [ 1.50165701e+00, 8.49196732e-01, -6.68219388e-01,
          1.67797599e-02, -1.05458963e+00, -1.16439152e+00,
          -4.46942806e-01, -5.05962431e-01, -2.58827537e-01,
          -1.23030722e+00, -2.13392645e-01, -9.29309011e-01 ]
      - [ 1.74850333e+00, 5.42825818e-01, 2.27717686e+00, 1.08303738e+00,
          -2.25618795e-01, 1.38189137e+00, 6.26426423e-03,
          5.03940701e-01, -1.28361773e+00, -9.70346868e-01,
          1.97359458e-01, -8.35179448e-01 ]
      - [ -1.46469563e-01, -9.01176155e-01, -6.85692847e-01,
          7.00991094e-01, -7.71597773e-02, 4.29449260e-01,
          3.51968908e+00, 2.66664553e+00, -4.85784709e-01,
          -6.03598990e-02, -2.85750365e+00, -2.70825744e-01 ]
      - [ 8.78895402e-01, -1.85629845e-01, 5.54132402e-01,
          6.60225153e-01, -1.56921637e+00, -2.82315433e-01,
          1.14420271e+00, 2.43445206e+00, -2.25091887e+00,
          -1.53925860e+00, -2.34093404e+00, -1.00240445e+00 ]
      - [ 4.65811253e-01, -7.45616674e-01, 1.47551075e-01,
          9.92921591e-01, -1.01253128e+00, 4.57758844e-01,
          4.33852243e+00, 4.15499449e+00, -2.04588246e+00,
          -1.23782706e+00, -4.82839870e+00, -9.31588173e-01 ]
      - [ -5.33387363e-01, -1.10570550e+00, -6.03294611e-01,
          -4.24611390e-01, -5.85430443e-01, 3.31536472e-01,
          5.78136384e-01, 7.42671371e-01, 4.45825487e-01, 9.31930244e-01,
          -7.20107794e-01, 7.60970175e-01 ]
      - [ -3.04394901e-01, -7.64351606e-01, -8.56818080e-01,
          4.49272960e-01, -1.71471012e+00, -6.29104912e-01,
          7.46768534e-01, 1.70701945e+00, -1.82937610e+00,
          -1.44709694e+00, -2.19730616e+00, -9.85007226e-01 ]
      - [ -3.22120279e-01, -8.11091304e-01, -4.31647778e-01,
          -1.97990477e-01, -2.79161364e-01, 1.97840676e-01,
          6.62514329e-01, 6.17583096e-01, 1.91207573e-01, 3.65950853e-01,
          -6.38141692e-01, 1.19231492e-01 ]
      - [ -1.00507319e+00, -9.47095156e-01, -8.24204266e-01,
          -7.12632000e-01, -1.27115190e+00, -6.69747174e-01,
          1.61318239e-02, -3.16553451e-02, 3.55812341e-01,
          7.23604500e-01, -8.65745664e-01, 5.08322656e-01 ]
      - [ -5.83171010e-01, -2.66760945e-01, 6.33306563e-01,
          -5.11929393e-01, 1.07358146e+00, 2.00108814e+00,
          2.91126758e-01, -4.56582531e-02, 4.03106242e-01,
          6.49012983e-01, 4.29479301e-01, 4.22516942e-01 ]
      - [ -1.48750246e+00, 2.56096172e+00, 1.46851504e+00,
          -1.96081567e+00, -7.39595234e-01, -1.07358360e+00,
          -1.07377720e+00, -5.46184003e-01, -1.24893570e+00,
          -1.25905240e+00, 6.40568912e-01, -9.37886715e-01 ]
      - [ -5.34323037e-01, -6.80130780e-01, -9.31536674e-01,
          -3.96394469e-02, 3.30101877e-01, -5.03405154e-01,
          -1.89166993e-01, -2.25936934e-01, 8.41268182e-01,
          9.27843094e-01, 2.85979956e-01, 7.55829334e-01 ]
      - [ -8.02206159e-01, -3.60883832e-01, 1.89305484e-01,
          -6.17091596e-01, 1.23644650e+00, 1.48539984e+00,
          -4.48807985e-01, -8.33525896e-01, 1.26050258e+00,
          1.40048504e+00, 8.80924463e-01, 1.39917433e+00 ]
      - [ 1.12343401e-01, 6.18342996e-01, 8.42318892e-01, 3.62606972e-01,
          2.00311685e+00, 1.28868282e+00, 7.09175467e-01, 2.11926810e-02,
          1.27856657e-01, 1.17251612e-01, 3.87289673e-01,
          -1.18062481e-01 ]
      - [ -8.43087196e-01, -1.27914989e+00, -1.11288357e+00,
          -2.35133827e-01, 1.66570798e-01, 1.02735452e-01,
          -1.04682148e+00, -1.54264414e+00, 2.65777397e+00,
          2.97020125e+00, 1.03742826e+00, 4.24303579e+00 ]
      - [ 7.07446158e-01, -5.91606617e-01, -5.65254509e-01,
          6.54325962e-01, -1.45045888e+00, -7.84835935e-01,
          -1.13664143e-01, 9.14378464e-01, -1.76488757e+00,
          -1.46980023e+00, -7.01625526e-01, -9.89640772e-01 ]
      - [ -5.03088422e-02, -7.90006042e-01, -8.33426356e-01,
          3.08658153e-01, -6.77207887e-01, -5.61487675e-01,
          2.55562425e-01, 3.60948652e-01, 6.41701790e-03, 2.37085298e-01,
          -6.17223263e-01, -7.13087851e-03 ]
      - [ 8.09867203e-01, -4.08097655e-01, -3.21372934e-02,
          2.19864893e+00, 1.84022322e-01, 1.37789369e+00, 5.21299481e-01,
          -9.14838240e-02, -2.34426290e-01, -6.75735712e-01,
          1.90515835e-02, -6.92461491e-01 ]
      - [ 8.52209330e-01, 7.12226108e-02, 1.01405859e+00, 7.15211391e-01,
          3.67790043e-01, 1.27315748e+00, 4.65081215e-01, 7.83121586e-01,
          -7.63405859e-01, -3.80425692e-01, 5.86940460e-02,
          -5.10975003e-01 ]
      - [ -4.78922457e-01, -3.96637231e-01, -1.63869992e-01,
          -2.07926840e-01, 1.95035517e-01, 3.17751259e-01,
          7.36306906e-01, 9.57054436e-01, -6.05042219e-01,
          -3.60313922e-01, -4.35099185e-01, -4.97215658e-01 ]
      - [ 5.10727167e-01, -4.90526974e-01, -8.03257823e-02,
          1.45227551e+00, -1.56597078e-01, 1.01857817e+00,
          1.84897768e+00, 9.54170763e-01, -8.23731482e-01,
          -1.29822338e+00, -1.28565061e+00, -9.48988616e-01 ]
      - [ -1.31018889e+00, 3.43617058e+00, 4.01659298e+00,
          -1.50076294e+00, -6.15460217e-01, 3.07868682e-02,
          -1.32167530e+00, -1.49304366e+00, 7.81010151e-01,
          -1.40072477e+00, 1.07658494e+00, -9.74836409e-01 ]
      - [ -6.27596736e-01, -1.37092865e+00, -8.34916234e-01,
          -4.02277671e-02, -6.79669440e-01, 4.74221855e-01,
          1.67840928e-01, 1.56168386e-01, 1.09085870e+00, 1.50026500e+00,
          -3.13917428e-01, 1.54759133e+00 ]
      - [ 8.16694796e-01, -4.50107902e-01, 1.39483184e-01,
          2.33249784e+00, 3.25218976e-01, 1.59164882e+00, 5.54622531e-01,
          4.73133996e-02, -2.61240512e-01, -8.43925893e-01,
          9.21747908e-02, -7.78628051e-01 ]
      - [ 4.82351571e-01, -4.24635798e-01, 7.73134902e-02,
          1.12759888e+00, 4.13930565e-01, 1.32786667e+00, 2.08944130e+00,
          1.22098196e+00, -4.40626889e-01, -4.20748681e-01,
          -1.07490468e+00, -5.38024127e-01 ]
      - [ 8.53445768e-01, 1.04791634e-01, 5.53299010e-01, 3.41494232e-01,
          -2.22216487e+00, -7.00556457e-01, -2.19112232e-01,
          8.22531283e-01, -2.00713897e+00, -1.62696445e+00,
          -1.26701736e+00, -1.01548064e+00 ]
      - [ -3.45807076e-01, -1.22375953e+00, -9.86326277e-01,
          7.70237386e-01, -1.61799061e+00, -2.90767521e-01,
          -6.40064776e-01, -5.12756228e-01, -4.86530662e-01,
          -1.10920620e+00, 9.98988189e-03, -8.89168859e-01 ]
      - [ 9.09511685e-01, -3.86760652e-01, 7.45197162e-02,
          1.30620420e+00, -2.52428532e-01, 4.82995749e-01,
          1.02433455e+00, 1.35680687e+00, -8.40185225e-01,
          -3.12272221e-01, -7.79322863e-01, -4.63625968e-01 ]
      - [ 3.91709685e-01, -1.00636494e+00, -4.48509961e-01,
          1.13629270e+00, -6.49724483e-01, 4.77895886e-01,
          8.79387975e-01, 7.02641070e-01, -8.90848190e-02,
          1.62908390e-01, -9.04216707e-01, -7.65444860e-02 ]
      - [ 1.15969610e+00, 7.47905433e-01, 5.42102516e-01, 4.51708794e-01,
          -5.80139756e-01, -4.42558885e-01, 1.35996687e+00,
          1.67922366e+00, -1.89470899e+00, -1.43239605e+00,
          -1.68060958e+00, -9.81885612e-01 ]
      - [ -1.22352481e+00, -1.96530008e+00, -1.77496934e+00,
          -6.52460217e-01, -2.36933541e+00, -1.21914101e+00,
          5.10099053e-01, 1.61021113e-01, 1.33112979e+00, 1.71329558e+00,
          -3.07973027e+00, 1.87916195e+00 ]
      - [ -1.05184138e+00, 2.56385356e-01, 9.71058726e-01,
          -1.21975172e+00, 3.85043740e-01, 1.06001735e+00,
          -1.02807963e+00, -1.01692152e+00, 2.26869941e-01,
          -3.82034853e-02, 1.08305824e+00, -2.52528876e-01 ]
      - [ -1.08485818e+00, 2.12322801e-01, 8.92810822e-01,
          -1.17838466e+00, 4.64569986e-01, 1.10352945e+00,
          -1.11823797e+00, -1.16703868e+00, 4.30356711e-01,
          1.20424673e-01, 1.16901135e+00, -1.15206793e-01 ]
      - [ -3.26241791e-01, 1.38323411e-01, 5.26678383e-01,
          -4.57240045e-01, 8.14509690e-01, 7.79032826e-01,
          -2.87247568e-01, -5.47975779e-01, 5.64364731e-01,
          3.13769758e-01, 6.22662246e-01, 6.71812817e-02 ]
      - [ -1.02555215e+00, -9.09423232e-01, -7.06205189e-01,
          -8.68201017e-01, -1.05933011e+00, -4.65621352e-01,
          -8.56592894e-01, -8.95276845e-01, 7.72796392e-01,
          6.54683888e-01, 4.10713345e-01, 4.28954154e-01 ]
      - [ 2.25096777e-01, -7.69720450e-02, 2.26485059e-01,
          2.44768068e-01, 2.87350595e-01, 5.21375477e-01, 3.20556998e-01,
          3.92845988e-01, -3.22411321e-02, 3.45149666e-01,
          1.46130298e-03, 9.83384922e-02 ]
      - [ -7.94358134e-01, -6.65815413e-01, -9.86524522e-01,
          -1.07483435e+00, -1.62878835e+00, -1.27996731e+00,
          4.03340571e-02, 5.27788997e-01, -9.58731830e-01,
          -1.03320646e+00, -1.45324552e+00, -8.60673547e-01 ]
      - [ 2.22516441e+00, 7.34641671e-01, 1.61370492e+00, 2.27561140e+00,
          1.04348220e-01, 1.44677341e+00, -6.39285386e-01,
          -2.65332639e-01, -9.55183506e-01, -1.43486965e+00,
          8.51991177e-01, -9.82417464e-01 ]
      - [ -2.87043631e-01, -3.36081147e-01, -1.45715386e-01,
          -3.95931453e-02, -3.01552881e-02, 3.27415168e-01,
          1.06494391e+00, 9.10640895e-01, -5.09954154e-01,
          -4.97868508e-01, -8.25045943e-01, -5.87759018e-01 ]
      - [ -8.59993935e-01, -1.24328017e+00, -9.83939707e-01,
          -4.05770063e-01, -3.07989866e-01, 1.66667297e-01,
          -7.29200065e-01, -1.41556346e+00, 2.43813157e+00,
          2.24535871e+00, 6.34235799e-01, 2.79474235e+00 ]
      - [ -3.13213795e-01, 6.54151201e-01, 1.50247133e+00,
          -4.59766656e-01, 1.54225588e+00, 1.80870891e+00,
          -8.93623829e-01, -1.17973971e+00, 8.24102283e-01,
          7.01571047e-01, 1.21352875e+00, 4.82721210e-01 ]
      - [ -1.03188014e+00, 4.65464622e-01, -6.41686171e-02,
          -7.73667157e-01, 1.13492620e+00, -5.01120798e-02,
          -9.77462828e-01, -1.31191111e+00, 1.50750184e+00,
          6.38905585e-01, 1.09909701e+00, 4.11078811e-01 ]
      - [ -8.28807533e-01, -1.29406631e+00, -1.06559587e+00,
          -1.32195503e-01, 2.96126962e-01, 3.93989533e-01,
          -8.39330137e-01, -1.13681185e+00, 2.27304196e+00,
          2.52338362e+00, 9.14008319e-01, 3.32285452e+00 ]
      - [ 6.28967047e-01, -3.58833760e-01, 7.52663910e-01,
          8.77216220e-01, -1.44507200e-01, 1.26589775e+00,
          3.41779780e+00, 3.56467009e+00, -1.54318893e+00,
          -8.56024265e-01, -2.53368974e+00, -7.84345090e-01 ]
      - [ 1.25252056e+00, -1.88964561e-01, 6.31853759e-01,
          2.72445846e+00, 6.84056520e-01, 1.97991812e+00, 1.05479002e+00,
          1.30702448e+00, -1.08294964e+00, -1.20218754e+00,
          -4.45222333e-02, -9.20565248e-01 ]
      - [ 9.64424908e-01, 5.56669295e-01, 5.84420502e-01, 5.55631101e-01,
          6.07826054e-01, 2.41590396e-01, 1.75081313e+00, 1.99448276e+00,
          -1.42777598e+00, -9.36793506e-01, -9.64424551e-01,
          -8.20857525e-01 ]
      - [ -6.44127548e-01, -1.64576244e+00, -1.26358283e+00,
          3.83472174e-01, -1.40685606e+00, -9.98148173e-02,
          8.20805728e-01, 9.76413965e-01, 2.45009243e-01, 4.82431710e-01,
          -1.67917371e+00, 2.39753947e-01 ]
      - [ 1.55908597e+00, 5.90397045e-02, 5.94769597e-01, 1.54544735e+00,
          -2.20061123e-01, 6.81316078e-01, -1.05359562e-01,
          -1.70573890e-01, -9.25493240e-01, -1.01796782e+00,
          2.33437449e-01, -8.54653239e-01 ]
      - [ 3.61840606e-01, 2.90600699e-03, -1.14473140e+00,
          2.50136226e-01, 4.23769772e-01, -1.24899626e+00,
          1.39384285e-01, 5.42781115e-01, -7.49038875e-01,
          -5.98271906e-01, -7.17802271e-02, -6.48577690e-01 ]
      - [ 1.91152203e+00, 6.53022826e-01, 1.50652874e+00, 1.65650523e+00,
          1.16196239e+00, 1.80022144e+00, 1.69774020e+00, 1.75266778e+00,
          -6.99998558e-01, -4.06380713e-01, -3.15020680e-01,
          -5.28468192e-01 ]
      - [ 6.11564338e-01, -9.27166998e-01, -7.66076326e-01,
          2.02163959e+00, 2.76293278e-01, 2.39857227e-01, 1.05397260e+00,
          6.86011136e-01, -1.93383127e-01, -2.22275317e-01,
          -5.05888700e-01, -3.97961646e-01 ]
      - [ -7.69058883e-01, 3.13272029e-01, 4.99137163e-01,
          -7.70893335e-01, 7.80480027e-01, 4.00254250e-01,
          2.19588414e-01, 1.88695624e-01, -2.18024760e-01,
          5.34000387e-03, 1.86615601e-01, -2.15939358e-01 ]
      - [ 1.49157786e+00, 2.96758145e-01, 1.12782514e+00, 1.54475093e+00,
          1.25092494e+00, 1.85415304e+00, 5.16148758e+00, 3.83522344e+00,
          -1.31877208e+00, -8.00676525e-01, -2.26895905e+00,
          -7.57662714e-01 ]
      - [ 3.83303070e+00, 1.09595299e+00, 1.51992834e+00, 2.09768176e+00,
          -4.83940542e-01, -1.38485849e-01, -1.14974964e+00,
          -4.74788338e-01, -8.97919059e-01, -9.34054196e-01,
          1.03808033e+00, -8.19666326e-01 ]
      - [ -7.26172328e-01, -4.75406170e-01, -6.93244100e-01,
          -7.96113789e-01, -8.02271128e-01, -1.14083076e+00,
          -1.04503548e+00, -1.06738985e+00, 1.02342558e+00,
          5.61951578e-01, 6.51096046e-01, 3.25471163e-01 ]
      - [ 8.47457707e-01, 1.50830865e-01, 4.99819130e-01, 6.96210861e-01,
          2.70806193e-01, 3.71335655e-01, 1.33197975e+00, 1.28065169e+00,
          -9.58708882e-01, -5.85827410e-01, -7.98370898e-01,
          -6.41281009e-01 ]
      - [ 1.68366420e+00, 1.93259692e+00, -1.88563958e-01,
          7.16499314e-02, -2.12212741e-01, -1.28816402e+00,
          -5.72490752e-01, 2.03496441e-01, -1.42988491e+00,
          -1.30531800e+00, 2.88094997e-01, -9.50927019e-01 ]
      - [ 5.63017070e-01, 1.69093922e-01, -7.08489716e-01,
          9.48213279e-01, 1.89591980e+00, -5.71619749e-01,
          -7.40200639e-01, -1.02835345e+00, 1.23572898e+00,
          1.13483942e+00, 1.08054948e+00, 1.02545607e+00 ]
      - [ 9.87484455e-01, 7.56315053e-01, -1.08094275e+00,
          -2.14149281e-01, -4.19774383e-01, -1.98032069e+00,
          -1.14194119e+00, -6.31568611e-01, -6.27777278e-01,
          -8.94425511e-01, 7.99116790e-01, -8.02063644e-01 ]
      - [ 1.22020245e+00, 3.08163142e+00, 2.53870785e-01,
          -1.05374455e+00, -5.58209699e-03, -1.77280116e+00,
          -9.94602501e-01, -1.00799537e+00, -4.09094781e-01,
          -1.31010354e+00, 7.37223566e-01, -9.52221930e-01 ]
      - [ -6.22847021e-01, -8.94700885e-01, -5.81160784e-01,
          -1.52794406e-01, 6.19338274e-01, 7.29042232e-01,
          -6.33242428e-01, -9.90581512e-01, 1.76592255e+00,
          2.08742213e+00, 8.46553504e-01, 2.50992846e+00 ]
      - [ 1.32689208e-01, 4.39538687e-01, -9.12608802e-01,
          -1.78130746e-01, 8.66283894e-01, -1.54158306e+00,
          -1.53867924e+00, -1.57540929e+00, 1.46558177e+00,
          7.68756211e-01, 1.45740175e+00, 5.61455190e-01 ]
      - [ -1.90144271e-01, -6.57237589e-01, -5.41652203e-01,
          3.25646520e-01, -5.68517968e-02, 1.12699278e-01,
          4.15954590e-01, 5.04953206e-01, 8.02968442e-03, 3.20189983e-01,
          -2.84553111e-01, 7.35205933e-02 ]
      - [ -4.75444376e-01, 8.86029363e-01, 8.90277863e-01,
          -8.55993748e-01, 8.89470160e-01, 2.71589786e-01,
          -1.41109750e-01, -1.83410272e-01, -7.34522283e-01,
          -5.96934855e-01, 4.77209032e-01, -6.47797048e-01 ]
      - [ 3.46142679e-01, 2.31140375e+00, 2.75066471e+00,
          -7.04735041e-01, -4.13899392e-01, 8.22902471e-02,
          -1.14830899e+00, -9.31952178e-01, -7.75034666e-01,
          -1.20297933e+00, 9.74362433e-01, -9.20816183e-01 ]
      - [ -9.97344136e-01, -1.25417054e+00, -1.03837550e+00,
          -8.01010191e-01, -6.59234345e-01, -2.10411444e-01,
          5.72707772e-01, 3.10256362e-01, 1.02659905e+00, 1.39697576e+00,
          -9.40886497e-01, 1.39403439e+00 ]
      - [ -1.54907107e+00, -5.98708928e-01, -7.35215664e-01,
          -1.61110044e+00, 1.12548769e+00, 1.62760705e-01,
          -3.19551826e-02, 1.55683115e-01, 1.07105386e+00,
          1.54211223e+00, 4.26351011e-01, 1.61114407e+00 ]
      - [ -9.21179280e-02, -4.85055745e-02, 3.21047217e-01,
          2.96434820e-01, 4.40922409e-01, 9.49022710e-01, 5.86332512e+00,
          5.03964615e+00, -1.86940503e+00, -1.13010418e+00,
          -4.02117205e+00, -8.96557629e-01 ]
      - [ -4.42103893e-01, 6.42308742e-02, 2.11714908e-01,
          -5.48107982e-01, 9.07232821e-01, 6.84341788e-01,
          4.29809153e-01, 4.22405601e-01, -2.94752538e-01,
          -1.95482224e-01, 1.42010123e-01, -3.77722353e-01 ]
      - [ 1.41266286e+00, 1.94762111e+00, 1.61689603e+00,
          -3.12688172e-01, -8.24811459e-02, -5.14968038e-01,
          -1.55902296e-01, -7.49625146e-01, 2.69618958e-01,
          -1.21730757e+00, 5.47425598e-02, -9.25310135e-01 ]
      - [ 8.22211355e-02, 3.60084534e-01, 7.28976905e-01,
          -1.72065884e-01, -6.62873864e-01, -3.13415639e-02,
          -1.26613947e-02, 8.07131976e-02, -7.80891895e-01,
          -8.06453586e-01, -2.54467815e-01, -7.60510921e-01 ]
      - [ -8.65130126e-01, -1.24660695e+00, -1.11036372e+00,
          -4.91177797e-01, -6.98128879e-01, -3.91251028e-01,
          -3.44788969e-01, -3.56372535e-01, 1.04142833e+00,
          1.21159279e+00, 1.87615175e-02, 1.13023686e+00 ]
      - [ -4.31472689e-01, -9.16862011e-01, -1.07755089e+00,
          3.48227650e-01, -4.21210825e-02, -2.97994167e-01,
          3.20539892e-01, 1.88770294e-01, 7.68223166e-01, 1.10999143e+00,
          -2.73610801e-01, 9.92091477e-01 ]
      - [ 8.31582725e-01, -6.00876987e-01, 4.51826192e-02,
          1.42793524e+00, 4.29802276e-02, 8.01565111e-01, 1.09708738e+00,
          6.14699423e-01, 8.44139382e-02, 4.09817159e-01,
          -5.94347298e-01, 1.63917169e-01 ]
      - [ 4.73602146e-01, 2.39221826e-01, -1.20165741e+00,
          1.37035074e-02, 6.74901009e-02, -1.31035435e+00,
          -2.83913583e-01, 2.12096021e-01, -8.21769416e-01,
          -9.39889073e-01, 1.31475106e-01, -8.22199643e-01 ]
      - [ -1.74521551e-01, -9.86323833e-01, -9.48661327e-01,
          8.42689633e-01, 6.68073595e-01, 1.36377633e-01, 8.48872289e-02,
          -3.91358823e-01, 1.48198438e+00, 1.63268578e+00,
          3.09466988e-01, 1.75134230e+00 ]
      - [ -1.30540586e+00, -1.85281539e+00, -1.65049994e+00,
          -7.33096302e-01, -1.62620127e+00, -6.50462031e-01,
          2.81953484e-01, -6.04497269e-02, 1.69439924e+00,
          2.03471422e+00, -1.49732971e+00, 2.41732740e+00 ]
      - [ 1.43501127e+00, 4.03308332e-01, 8.52068305e-01, 1.32066205e-01,
          -2.04373717e+00, -7.78872848e-01, 5.64884543e-01,
          1.59663403e+00, -1.99518883e+00, -1.59982276e+00,
          -2.43819046e+00, -1.01179671e+00 ]
      - [ -1.42078722e+00, -1.27890265e+00, -1.32233346e+00,
          -1.49328351e+00, -1.56873214e+00, -1.41861689e+00,
          -1.17945588e+00, -1.25997770e+00, 1.46666873e+00,
          1.60004365e+00, 4.92847115e-01, 1.70039856e+00 ]
      - [ 9.42839384e-02, -6.04830861e-01, -7.14796305e-01,
          -4.56760302e-02, -9.59716022e-01, -1.04581845e+00,
          -5.09019554e-01, -5.89659140e-02, -1.17716022e-01,
          1.33741319e-01, -3.55915655e-03, -1.03173658e-01 ]
      - [ -9.88364339e-01, -1.74139345e+00, -2.19301701e+00,
          -3.13751072e-01, -1.35515785e+00, -2.25381684e+00,
          -1.17281985e+00, -1.38569582e+00, 2.45070410e+00,
          2.80632854e+00, 5.13870955e-01, 3.89532590e+00 ]
      - [ 3.67151916e-01, -4.39899415e-01, -4.72439118e-02,
          9.26304221e-01, -3.78349364e-01, 3.40320349e-01,
          7.76116312e-01, 8.69943380e-01, -6.60961390e-01,
          -4.21200722e-01, -7.03802466e-01, -5.38323283e-01 ]
      - [ 1.30237758e+00, 1.42358035e-01, 7.99704790e-01, 1.02713597e+00,
          -6.31910741e-01, 6.18987441e-01, -4.63661164e-01,
          2.76925303e-02, -1.47455859e+00, -1.54904354e+00,
          3.77993196e-01, -1.00403154e+00 ]
      - [ -3.69715661e-01, -1.27734137e+00, -1.01036131e+00,
          8.94692898e-01, 1.16617389e-01, 6.85054958e-01, 1.10959256e+00,
          5.47209263e-01, 7.27529228e-01, 9.47883427e-01,
          -6.25903666e-01, 7.81106651e-01 ]
      - [ 2.33238101e+00, 2.89370745e-01, 1.48111665e+00, 4.18299580e+00,
          2.54500628e+00, 3.52299643e+00, 1.10128117e+00, 4.76233482e-01,
          -2.97664493e-01, -4.71790582e-01, 6.23614669e-01,
          -5.71234882e-01 ]
      - [ 1.47418284e+00, 8.84397626e-02, 3.63447428e-01, 1.63287485e+00,
          -5.86486399e-01, 4.15864170e-01, 1.19587637e-01,
          3.46455812e-01, -1.30711126e+00, -1.42943430e+00,
          -1.54657319e-01, -9.81245100e-01 ]
      - [ 1.67835340e-01, -4.45023417e-01, -2.66519785e-01,
          -9.11578462e-02, -8.26236963e-01, -6.07529879e-01,
          -7.52091169e-01, -7.86211848e-01, 7.78048813e-01,
          4.94731486e-01, 4.07276303e-01, 2.52829909e-01 ]
      - [ -7.49412715e-01, -1.06072628e+00, -9.35226381e-01,
          -4.48957205e-01, -7.72421479e-01, -3.61815840e-01,
          2.04169607e+00, 2.30158544e+00, -6.05250061e-01,
          -1.84315532e-01, -2.66600156e+00, -3.69193614e-01 ]
      - [ -2.88731247e-01, -1.06870461e+00, -8.98190737e-01,
          4.38497782e-01, 2.60599181e-02, 3.89959291e-02, 5.15569329e-01,
          -4.20653708e-02, 1.22343397e+00, 1.48224854e+00,
          -3.23119909e-01, 1.52046776e+00 ]
      - [ 1.09458482e+00, 2.33014658e-01, 1.10076761e+00, 1.14492035e+00,
          7.03825831e-01, 1.75340247e+00, 2.21084046e+00, 2.16066980e+00,
          -1.35344088e+00, -1.01669061e+00, -8.97458613e-01,
          -8.54143977e-01 ]
      - [ 7.98568726e-01, -8.46925437e-01, -4.05937821e-01,
          2.43477130e+00, 2.97662824e-01, 1.46590579e+00, 2.41843033e+00,
          1.76412761e+00, -5.47932446e-01, -8.59574527e-02,
          -1.22277284e+00, -2.91694671e-01 ]
      - [ 1.52556658e+00, 6.88687623e-01, 1.41840482e+00, 1.12880957e+00,
          1.20457208e+00, 1.41932881e+00, 8.62294316e-01, 4.34173435e-01,
          -2.44839653e-01, -7.67512619e-02, 1.26705229e-01,
          -2.84222424e-01 ]
      - [ 1.39403987e+00, 9.60818946e-01, 1.18400586e+00, 2.58707941e-01,
          -1.62703550e+00, -6.52317166e-01, 1.89382166e-01,
          1.52892798e-01, -1.38617933e+00, -1.56322253e+00,
          -1.29324448e+00, -1.00631428e+00 ]
      - [ 1.43053567e+00, -5.42408638e-02, 1.60721958e-01,
          1.70298159e+00, -3.58654745e-02, 1.11234397e-01,
          3.50732654e-01, 2.49802619e-01, -2.69656420e-01,
          5.32845780e-03, -1.41728804e-01, -2.15949163e-01 ]
      - [ -7.98043728e-01, 1.07851577e+00, 1.59323859e+00,
          -1.31144905e+00, 1.25182545e+00, 1.00864387e+00,
          3.40361774e-01, -3.42957556e-01, 2.96015352e-01,
          -2.67451227e-01, 3.11305106e-01, -4.31369960e-01 ]
      - [ -1.42472792e+00, -2.01285434e+00, -2.04047585e+00,
          -1.33544505e+00, -2.48560834e+00, -1.98931658e+00,
          -8.52141857e-01, -1.05866432e+00, 2.12019968e+00,
          2.35341597e+00, -8.31943631e-01, 2.99594688e+00 ]
      - [ -1.24414468e+00, 1.58173048e+00, 1.51589477e+00,
          -1.44920778e+00, -1.88669544e-02, -2.46899918e-01,
          -6.30481780e-01, -5.71301520e-01, -7.57894099e-01,
          -1.10450447e+00, 5.00294507e-01, -8.87479901e-01 ]
      - [ 2.24440947e-01, 2.42842719e-01, -1.26705360e+00,
          -3.55913937e-01, 1.55860364e-01, -1.90977371e+00,
          -2.47104079e-01, 7.59444684e-02, -4.58253533e-01,
          -2.12857962e-01, 4.17069308e-02, -3.90883952e-01 ]
      - [ -1.03468907e+00, 2.07993817e+00, 2.87084627e+00,
          -9.64629471e-01, 1.79425573e+00, 2.08470631e+00,
          -4.93665300e-02, -5.35582662e-01, -6.93093538e-02,
          -5.56966782e-01, 7.66843915e-01, -6.24095917e-01 ]
      - [ -4.08493504e-02, -2.13164419e-01, -1.01396620e+00,
          -1.56744286e-01, 3.99766862e-01, -9.30459321e-01,
          9.37950552e-01, 1.21671712e+00, -1.00662136e+00,
          -8.88042033e-01, -7.59984553e-01, -7.99163342e-01 ]
      - [ -1.06729758e+00, -1.91725874e+00, -1.65602005e+00,
          -8.30754787e-02, -1.51618385e+00, -3.21230322e-01,
          -2.54754126e-01, -6.82190955e-01, 2.15108919e+00,
          2.54510093e+00, -4.91562456e-01, 3.36554241e+00 ]
      - [ 5.54165840e-01, 1.59539676e+00, 2.49000549e+00,
          -4.48977113e-01, 3.38023335e-01, 7.73905575e-01,
          -1.15990013e-01, -3.76352698e-01, -2.35653058e-01,
          -1.04924083e+00, 3.61891001e-01, -8.66897523e-01 ]
      - [ 6.62998557e-01, -6.19737096e-02, 6.21774435e-01,
          9.16358232e-01, 1.08627236e+00, 1.44396102e+00, 1.50396812e+00,
          1.66355026e+00, -6.23848796e-01, -1.07418410e-01,
          -3.13302398e-01, -3.08968395e-01 ]
      - [ -1.25504625e+00, 8.61521304e-01, 1.95896685e-01,
          -1.41666126e+00, 2.52449177e-02, -7.14936137e-01,
          -2.24707901e-01, -2.49565959e-01, -5.05466759e-01,
          -9.48778391e-01, 6.59190118e-02, -8.26030195e-01 ]
      - [ 4.66029072e+00, 1.71629333e+00, 2.16156101e+00, 2.73248410e+00,
          6.30366564e-01, 7.44011223e-01, -6.99302673e-01,
          -2.11593404e-01, -7.50641346e-01, -1.27894437e+00,
          9.64572310e-01, -9.43609118e-01 ]
      - [ -9.35823143e-01, -1.24993885e+00, -8.98925424e-01,
          -4.15343255e-01, 5.86375058e-01, 8.70139241e-01,
          -7.02394843e-01, -1.26977646e+00, 2.38461709e+00,
          2.72020888e+00, 8.96413147e-01, 3.71734428e+00 ]
      - [ -5.29093564e-01, -1.05372715e+00, -7.77851164e-01,
          3.16322297e-01, 9.32874143e-01, 8.63833249e-01,
          -1.74999163e-02, -4.52209175e-01, 1.80830300e+00,
          2.21053839e+00, 5.17281651e-01, 2.73100376e+00 ]
      - [ -5.71243405e-01, 2.03059748e-01, 6.74179077e-01,
          -6.00478947e-01, 1.39692461e+00, 1.36910081e+00,
          3.99802327e-01, 1.60675824e-01, 1.10608846e-01, 2.24369809e-01,
          3.83308470e-01, -1.92022268e-02 ]
      - [ 2.10789824e+00, 8.12150180e-01, 1.24032056e+00, 1.31737638e+00,
          -7.13900685e-01, 2.85920590e-01, -9.13563609e-01,
          7.74096176e-02, -1.53636074e+00, -1.37846458e+00,
          7.63073325e-01, -9.69617069e-01 ]
      - [ -4.06063974e-01, -9.65084493e-01, -1.00233209e+00,
          -5.75182498e-01, -1.32178247e+00, -1.27349627e+00,
          -1.41288674e+00, -1.16530752e+00, 1.18575311e+00,
          1.61093199e+00, 9.94591117e-01, 1.71733952e+00 ]
      - [ 2.89612675e+00, 1.06163049e+00, 2.15929866e+00, 2.28978324e+00,
          1.11549270e+00, 1.78542161e+00, -2.52757698e-01,
          7.37187490e-02, -7.50829101e-01, -3.57979238e-01,
          8.33401263e-01, -4.95606840e-01 ]
      - [ 1.90933561e+00, 4.58937407e-01, 1.26357079e+00, 1.34721029e+00,
          -2.19363198e-01, 8.54821384e-01, 1.80655766e+00,
          1.70823729e+00, -1.82218766e+00, -1.48760664e+00,
          -1.34473467e+00, -9.93115783e-01 ]
      - [ 9.86170888e-01, -2.34109148e-01, -8.98384094e-01,
          1.75401747e+00, 8.62658143e-01, -4.79586542e-01,
          1.25140834e+00, 1.28880811e+00, -4.80567247e-01,
          -2.89458483e-01, -5.26351035e-01, -4.47318524e-01 ]
      - [ 3.90583634e-01, -6.29474401e-01, -1.53436339e+00,
          1.14305508e+00, 6.82439283e-02, -1.19576633e+00,
          -5.11941969e-01, -5.17921567e-01, 7.80265510e-01,
          8.17687929e-01, 4.37526435e-01, 6.20051503e-01 ]
      - [ -9.45970833e-01, -1.75142813e+00, -1.67619836e+00,
          -1.09867191e+00, -3.41883683e+00, -1.84493423e+00,
          -2.77540028e-01, -5.10997117e-01, 2.81687856e-01,
          -2.00866073e-01, -3.80420160e+00, -3.81814688e-01 ]
      - [ 2.85054564e+00, 1.02336645e+00, 4.69314694e-01, 2.36730528e+00,
          1.44377244e+00, 9.98088568e-02, 4.76017863e-01, 5.98139524e-01,
          -5.96982539e-01, -2.73909569e-01, 3.28181177e-01,
          -4.36072439e-01 ]
      - [ 1.38888943e+00, 1.13947436e-01, 8.28212619e-01, 1.31262064e+00,
          5.69654763e-01, 1.10052812e+00, 1.68509996e+00, 1.39738774e+00,
          -2.11529121e-01, -4.15417492e-01, -7.22138345e-01,
          -5.34489036e-01 ]
      - [ -6.63973629e-01, -1.22611094e+00, -1.27390397e+00,
          -6.68577254e-01, -1.44566619e+00, -1.18452322e+00,
          -9.49371994e-01, -6.73712671e-01, 8.11715662e-01,
          7.33272552e-01, 2.71524876e-01, 5.19623935e-01 ]
      - [ 7.57190436e-02, -2.45243892e-01, -1.14718878e+00,
          3.37741196e-01, 1.18927538e+00, -9.46396708e-01,
          2.58619878e-02, 1.30430281e-01, 2.51803249e-01, 4.58703995e-01,
          3.69897634e-01, 2.14717448e-01 ]
      - [ 1.04537117e+00, 7.66883671e-01, -1.17779601e+00,
          -3.29783469e-01, -9.33828413e-01, -2.09108734e+00,
          -6.95404112e-01, -6.28125072e-01, -4.49150831e-01,
          -8.69719088e-01, -2.00053360e-02, -7.90738583e-01 ]
      - [ 2.91975707e-01, -1.85160786e-01, 5.21102309e-01,
          6.30616903e-01, 5.64872861e-01, 1.32515180e+00, 2.49468541e+00,
          2.10439229e+00, -9.55983520e-01, -4.34849620e-01,
          -1.28304088e+00, -5.47313929e-01 ]
      - [ -3.72390360e-01, -3.30594778e-01, -4.99539942e-01,
          2.33263746e-01, 2.08644867e-01, 1.78511113e-01, 1.16709578e+00,
          1.25692010e+00, -3.33770573e-01, 8.61862302e-02,
          -8.02256703e-01, -1.45786002e-01 ]
      - [ -5.19247591e-01, 3.59292179e-02, -7.82692552e-01,
          -3.01273644e-01, 3.45104307e-01, -5.98976910e-01,
          5.06590344e-02, 3.10442984e-01, -5.24057686e-01,
          -3.51757020e-01, 2.40869634e-02, -4.91307378e-01 ]
      - [ -4.79132801e-01, -9.68836308e-01, -1.91633546e+00,
          -2.55195439e-01, -1.28251553e+00, -2.09581065e+00,
          -1.11911964e+00, -1.29834211e+00, 1.27563763e+00,
          8.37224662e-01, 4.58743572e-01, 6.43742085e-01 ]
      - [ -2.80448258e-01, -4.42871183e-01, -6.07742727e-01,
          -1.48475036e-01, -3.19210798e-01, -6.84126437e-01,
          -3.78827214e-01, -4.69753623e-01, 5.79291165e-01,
          3.32404703e-01, 1.79290861e-01, 8.56315866e-02 ]
      - [ 2.46469632e-01, 8.41822863e-01, 1.06603217e+00,
          -1.84849054e-01, 1.66871822e+00, 1.04347920e+00,
          6.49174631e-01, 5.23412228e-01, -6.22242153e-01,
          -3.28243136e-01, 3.03153694e-01, -4.74905461e-01 ]
      - [ 1.94536793e+00, 1.27134487e-01, 4.62981790e-01, 1.81624448e+00,
          -3.39193821e-01, 3.27848822e-01, 7.26425111e-01,
          1.37302148e+00, -1.30754280e+00, -9.82528031e-01,
          -5.82316697e-01, -8.40255976e-01 ]
      - [ -2.44312664e-03, 1.46748826e-01, -1.45532739e+00,
          -6.99210167e-01, -1.11245610e-01, -2.14292216e+00,
          -4.14158911e-01, 1.21373422e-01, -8.23518872e-01,
          -9.88293350e-01, 2.88184863e-02, -8.42635870e-01 ]
      - [ 1.67056680e+00, 4.90309626e-01, -5.41426003e-01,
          1.87803519e+00, 1.25510406e+00, -4.61789668e-01,
          9.69725907e-01, 8.45166445e-01, -6.00505114e-01,
          -4.50678289e-01, -1.58116028e-01, -5.57637453e-01 ]
      - [ 3.18833447e+00, 9.12921011e-01, 1.43129265e+00, 2.90550327e+00,
          1.23773718e+00, 1.29175305e+00, 1.00495026e-01, 4.06162977e-01,
          -1.06042159e+00, -1.02949405e+00, 6.33365452e-01,
          -8.59216332e-01 ]
      - [ -1.03159833e+00, -1.96335673e+00, -1.91793966e+00,
          -3.70560199e-01, -2.11401129e+00, -1.59147966e+00,
          -1.16674125e+00, -1.24432290e+00, 2.54175067e+00,
          3.08835244e+00, 2.75876522e-01, 4.50108242e+00 ]
      - [ -1.22648883e+00, -1.73073626e+00, -1.58978057e+00,
          -7.74201393e-01, -1.36560297e+00, -5.99632680e-01,
          7.02012241e-01, 7.98230350e-01, 6.71258926e-01, 9.89307344e-01,
          -1.79805398e+00, 8.33917379e-01 ]
      - [ 2.57866144e-01, 1.04007624e-01, -1.11234796e+00,
          1.60166755e-01, 1.05908310e+00, -1.37092018e+00,
          4.06419963e-01, 7.37184048e-01, -5.34660757e-01,
          -3.99713904e-01, -2.93952953e-02, -5.24003267e-01 ]
      - [ 1.39786816e+00, -5.82760572e-02, 3.73058647e-01,
          1.35982573e+00, -1.06635869e+00, 5.20203769e-01,
          -3.87105405e-01, -3.26103687e-01, -6.33512378e-01,
          -1.17220521e+00, 1.16385177e-01, -9.10857975e-01 ]
      - [ -1.22860479e+00, -4.23626572e-01, -6.11652851e-01,
          -9.90924895e-01, -4.57417279e-01, -7.14721680e-01,
          -6.06654406e-01, -8.62371624e-01, 7.22942650e-01,
          3.95097315e-01, 3.02479953e-01, 1.48827747e-01 ]
      - [ -9.05948341e-01, -9.81177270e-01, -1.42645836e+00,
          -1.13526547e+00, -2.53688717e+00, -1.93525386e+00,
          -4.58163410e-01, -9.53893363e-02, -5.33989608e-01,
          -7.65000045e-01, -1.86457229e+00, -7.39747226e-01 ]
      - [ -6.20925248e-01, -1.49937958e-01, 5.03135882e-02,
          -8.58607173e-01, 3.08825523e-01, 2.55591333e-01,
          -5.82840014e-03, 2.77897090e-01, -4.98308748e-01,
          -4.61633354e-01, 1.84919834e-01, -5.64717591e-01 ]
      - [ 1.66855887e-01, -3.09598118e-01, 6.02653809e-02,
          5.64790606e-01, 6.47407413e-01, 6.90291405e-01,
          -2.62484342e-01, -7.43647873e-01, 1.03317904e+00,
          1.03585029e+00, 6.01792991e-01, 8.94157529e-01 ]
      - [ 1.13055992e+00, -1.32618528e-02, 4.52403128e-01,
          9.81719136e-01, -2.20858753e-01, 5.89136541e-01,
          6.54798746e-01, 6.41832709e-01, -8.59740615e-01,
          -7.12403119e-01, -4.48789120e-01, -7.12310612e-01 ]
      - [ 1.26285672e+00, 2.95630962e-01, 1.02951741e+00, 1.09750056e+00,
          6.83466434e-01, 1.19883478e+00, 2.20885873e+00, 2.08543849e+00,
          -9.85136926e-01, -4.42038596e-01, -1.00415432e+00,
          -5.52016258e-01 ]
      - [ 1.60515082e+00, 2.11367917e+00, 3.16732693e+00, 1.33274388e+00,
          3.84367132e+00, 3.34642482e+00, 2.50957894e+00, 3.43847454e-01,
          6.88788220e-02, -5.45358181e-01, 2.72461116e-01,
          -6.17079914e-01 ]
      - [ 8.01560402e-01, 4.74888533e-01, 9.96593416e-01, 7.29080141e-01,
          -2.94836372e-01, 4.21410799e-01, 7.83467114e-01,
          6.33074462e-01, -1.01544940e+00, -1.00494432e+00,
          -6.74020529e-01, -8.49426925e-01 ]
      - [ -7.19414175e-01, 1.14728439e+00, -2.96726435e-01,
          -4.03971881e-01, -1.04556233e-01, -8.60837102e-01,
          -9.10002172e-01, -7.80803859e-01, -5.44361055e-01,
          -9.12476301e-01, 6.97696149e-01, -8.10167551e-01 ]
      - [ -5.78491747e-01, -1.33801711e+00, -7.46041119e-01,
          -1.91999748e-02, -9.01638448e-01, 3.28222960e-01,
          -3.98184121e-01, -3.35917696e-02, 5.38566589e-01,
          9.51050878e-01, 1.31228834e-01, 7.85118163e-01 ]
      - [ -4.38367903e-01, -1.52600205e+00, -1.55804050e+00,
          -2.27256089e-01, -2.25724030e+00, -1.85125029e+00,
          -5.90413451e-01, -3.23406667e-01, 8.94307256e-01,
          1.29316187e+00, -9.84281182e-01, 1.24444044e+00 ]
      - [ -7.03403115e-01, -1.40859485e+00, -8.23100269e-01,
          4.76975858e-01, -6.67981327e-01, 7.85486460e-01,
          1.88329414e-01, 2.18955159e-01, 8.23513925e-01, 1.13289034e+00,
          -2.62838155e-01, 1.02282906e+00 ]
      - [ 1.60322383e-01, -8.12593877e-01, -9.70190465e-01,
          4.27638412e-01, -2.06450200e+00, -7.81316698e-01,
          -1.00540924e+00, -6.41768694e-01, -8.42095256e-01,
          -1.59342027e+00, 2.07750708e-01, -1.01088035e+00 ]
      - [ 1.31449461e+00, 8.47436786e-01, 7.12810695e-01, 5.10766923e-01,
          8.46541286e-01, 4.85838689e-02, 1.12241971e+00, 9.30532396e-01,
          -7.76112258e-01, -1.76450238e-01, -4.03701305e-01,
          -3.63153368e-01 ]
      - [ -8.64065051e-01, -1.65650260e+00, -1.28455746e+00,
          7.91565478e-02, -8.10978472e-01, 2.64116555e-01,
          1.60364139e+00, 1.12495863e+00, 1.14302409e+00, 1.59336054e+00,
          -1.90637708e+00, 1.69002652e+00 ]
      - [ -1.08199883e+00, -1.75629985e+00, -1.58424652e+00,
          -5.10019600e-01, -1.54753590e+00, -7.53103256e-01,
          5.40730596e-01, 1.43178016e-01, 1.39474750e+00, 1.77242279e+00,
          -1.79444301e+00, 1.97474015e+00 ]
      - [ 1.22130847e+00, -1.20383799e-01, 6.92021906e-01,
          2.07018161e+00, -1.90170676e-01, 1.14802837e+00,
          4.87017304e-01, 1.55332351e+00, -1.99580145e+00,
          -1.64328098e+00, -1.39200136e-01, -1.01753891e+00 ]
      - [ 9.00409162e-01, 1.58954307e-01, -1.14964354e+00,
          3.69810641e-01, -2.55016118e-01, -1.71685874e+00,
          -2.02656344e-01, -3.49822603e-02, -6.82461858e-02,
          -4.53358650e-01, -1.37705937e-01, -5.59374630e-01 ]
      - [ -1.07555047e-01, -2.55788207e-01, -6.69056058e-01,
          5.71142137e-01, 8.56504202e-01, -1.58178717e-01,
          7.87659705e-01, 6.47977889e-01, 2.55803883e-01, 7.51023531e-01,
          -2.13295355e-01, 5.40480912e-01 ]
      - [ -1.45437992e+00, -1.85881197e+00, -1.89317989e+00,
          -1.04378808e+00, -1.91520929e+00, -1.43334782e+00,
          1.01746947e-01, -4.59335521e-02, 1.32595527e+00,
          1.57367432e+00, -1.88942945e+00, 1.65958798e+00 ]
      - [ 1.81433904e+00, 1.80584192e+00, 2.00251412e+00, 1.11143577e+00,
          5.74599206e-01, 5.38192749e-01, 3.47138971e-01,
          -2.81449288e-01, -4.52967614e-01, -8.79135907e-01,
          1.09031670e-01, -7.95086861e-01 ]
      - [ -9.65924442e-01, 7.63704181e-01, 1.20605981e+00,
          -1.20744050e+00, -5.86911738e-01, -1.80273831e-01,
          2.83188045e-01, 9.80846763e-01, -1.59833550e+00,
          -1.27474642e+00, -6.63476229e-01, -9.42416012e-01 ]
      - [ -9.64781284e-01, 1.16206944e+00, 1.27637804e+00,
          -1.19607913e+00, -1.22372043e+00, -9.11042333e-01,
          -1.06038213e+00, -9.41214383e-01, -4.11407024e-01,
          -9.27817166e-01, 5.09557068e-01, -8.16941857e-01 ]
      - [ 1.87823963e+00, 2.27946535e-01, 1.02951896e+00, 1.56850004e+00,
          -1.52896792e-01, 7.58999169e-01, 8.13548982e-01,
          1.47123313e+00, -1.69361651e+00, -1.24791884e+00,
          -4.73567665e-01, -9.34607625e-01 ]
      - [ -8.61263752e-01, -9.14332151e-01, -6.79523647e-01,
          -7.38225579e-01, -7.30587006e-01, -1.61240473e-01,
          9.74811614e-02, 3.85613561e-01, 4.42813821e-02, 2.49101281e-01,
          -4.67575490e-01, 4.34196740e-03 ]
      - [ 4.25375290e-02, -1.10810101e+00, -7.88271070e-01,
          1.18387854e+00, -2.74769545e-01, 6.58210158e-01,
          -4.16412652e-01, -7.20826089e-01, 1.00334394e+00,
          7.64418542e-01, 4.73832697e-01, 5.56311786e-01 ]
      - [ -3.96674931e-01, -1.26286292e+00, -6.55022204e-01,
          4.92204875e-01, -1.63815379e-01, 9.84165311e-01,
          2.32512045e+00, 1.56297290e+00, 5.65473199e-01, 8.93174529e-01,
          -1.76822603e+00, 7.12519348e-01 ]
      - [ 1.21157670e+00, 2.39279389e-01, 9.24686670e-01, 2.14328051e+00,
          -1.04981139e-01, 1.18408632e+00, 1.18418252e+00,
          1.92036664e+00, -1.98153961e+00, -1.57476401e+00,
          -6.46907389e-01, -1.00810695e+00 ]
      - [ 4.97733474e-01, 7.97180057e-01, 1.34959340e-01, 1.66124061e-01,
          3.44189018e-01, -1.80832371e-01, 4.25647616e-01,
          1.11228085e+00, -1.18506026e+00, -8.56894553e-01,
          -1.83647603e-01, -7.84753799e-01 ]
      - [ -2.14652523e-01, -2.90059417e-01, -5.67304611e-01,
          -5.88145554e-01, -1.14261234e+00, -1.15732527e+00,
          8.86656940e-01, 2.08736110e+00, -1.90491378e+00,
          -1.28779233e+00, -2.03021526e+00, -9.46098387e-01 ]
      - [ -8.03085685e-01, -1.57695484e+00, -1.65947521e+00,
          -9.89323497e-01, -2.54229879e+00, -2.18372560e+00,
          -1.67308152e+00, -1.62459445e+00, 1.80165637e+00,
          1.58500826e+00, 1.00388217e+00, 1.67709136e+00 ]
      - [ -4.87161666e-01, -1.38380349e+00, -7.84502447e-01,
          5.54537058e-01, -1.26130655e-01, 1.07231522e+00,
          2.20454025e+00, 1.20530856e+00, 9.77537870e-01, 1.27369595e+00,
          -1.60687077e+00, 1.21691990e+00 ]
      - [ 5.09214289e-02, -7.78263986e-01, -6.99966073e-01,
          4.08295125e-01, -2.77081639e-01, -3.50534797e-01,
          -8.73129368e-01, -7.49107182e-01, 1.09865844e+00,
          1.60867584e+00, 7.65148163e-01, 1.71382487e+00 ]
      - [ -8.83351445e-01, -1.36215150e+00, -1.44701016e+00,
          -9.33320150e-02, -9.61704135e-01, -4.98198032e-01,
          9.54805195e-01, 1.03417075e+00, -3.05909216e-01,
          -1.46458477e-01, -1.64098263e+00, -3.39870304e-01 ]
      - [ 1.69231462e+00, 4.14055288e-01, 4.30036485e-01, 1.17792368e+00,
          -9.34864357e-02, -3.51355582e-01, -7.55616426e-01,
          -2.66965777e-01, -4.14276332e-01, -9.84312743e-02,
          7.22179890e-01, -3.01759452e-01 ]
      - [ 8.02545547e-01, 2.60979354e-01, 6.68242753e-01, 1.22546923e+00,
          1.73828328e+00, 1.55080664e+00, 2.01034951e+00, 1.13867688e+00,
          -1.74253970e-01, 2.64195532e-01, -3.23736757e-01,
          1.88442115e-02 ]
      - [ 2.27437329e+00, 7.86098361e-01, 1.62918580e+00, 1.33660150e+00,
          -7.72620976e-01, 2.56325573e-01, -9.82731342e-01,
          -5.31099811e-02, -1.80534971e+00, -1.59013093e+00,
          8.14255476e-01, -1.01040244e+00 ]
      - [ -2.08841473e-01, 2.26789545e-02, 4.24823254e-01,
          -1.02480195e-01, 8.49978030e-01, 9.36087370e-01,
          7.22746015e-01, 5.06096423e-01, 1.16909049e-01, 3.90315682e-01,
          -3.39630544e-02, 1.43946603e-01 ]
      - [ -9.04595792e-01, 7.51230597e-01, 1.15469253e+00,
          -1.09283829e+00, 1.02339065e+00, 1.17402589e+00,
          4.56462353e-02, 2.41580978e-01, -5.28301001e-01,
          -1.96872339e-01, 4.54299569e-01, -3.78780216e-01 ]
      - [ 7.68096209e-01, 7.38019824e-01, -1.13938820e+00,
          -2.79546499e-01, -8.62696052e-01, -1.44279087e+00,
          3.26078534e-01, 5.46028733e-01, -1.23295093e+00,
          -1.16660094e+00, -1.22083747e+00, -9.08999503e-01 ]
      - [ 1.91494870e+00, 1.93529725e-01, 1.00417185e+00, 2.47612572e+00,
          1.01280057e+00, 1.65503275e+00, -5.53300798e-01,
          -3.71943235e-01, 4.54406105e-02, 2.48381838e-01,
          9.90232289e-01, 3.65326041e-03 ]
      - [ -1.09161258e+00, -1.59039354e+00, -1.68758082e+00,
          -4.10772473e-01, -1.37376070e+00, -8.82963479e-01,
          1.03699839e+00, 9.65136051e-01, 1.29459769e-01, 2.90934503e-01,
          -2.35413504e+00, 4.47812043e-02 ]
      - [ 1.20078468e+00, -4.11609054e-01, -2.53272384e-01,
          1.75818515e+00, -6.17695488e-02, 5.06783247e-01,
          1.60341918e+00, 1.09098494e+00, -5.41348457e-01,
          -2.31839955e-01, -1.11872780e+00, -4.05109972e-01 ]
      - [ -5.08214712e-01, 3.77541006e-01, 1.38865471e+00,
          -2.95188099e-01, 2.33918500e+00, 2.72115707e+00,
          -2.42829069e-01, -5.34089565e-01, 8.21134031e-01,
          1.09562421e+00, 1.02410746e+00, 9.72924113e-01 ]
      - [ -1.24633014e+00, -1.70694113e+00, -1.05175459e+00,
          -1.31008101e+00, -2.50911403e+00, -7.40429461e-01,
          -5.28022885e-01, 1.15391508e-01, 3.72597605e-01,
          6.64460659e-01, -1.15383160e+00, 4.40085441e-01 ]
      - [ -4.96740133e-01, -1.17954969e+00, -1.07744968e+00,
          2.87688613e-01, -1.54564631e+00, -6.39927626e-01,
          2.74056768e+00, 2.91639280e+00, -5.78286767e-01,
          1.87102079e-01, -4.73597193e+00, -5.41711636e-02 ]
      - [ 2.90365505e+00, 5.42636752e-01, 1.55333686e+00, 2.37080765e+00,
          5.64300418e-02, 9.00445879e-01, 3.64804745e-01, 9.87038612e-01,
          -1.53342533e+00, -1.19154286e+00, 3.24559845e-02,
          -9.17164207e-01 ]
      - [ -3.55043828e-01, -9.02429819e-01, -1.05508959e+00,
          3.78920734e-01, 5.05569696e-01, -2.80252606e-01,
          -1.23624526e-01, -4.10373092e-01, 1.53125596e+00,
          1.98880875e+00, 3.47392917e-01, 2.33767581e+00 ]
      - [ -7.93937445e-01, -5.15124202e-01, -3.17896098e-01,
          -7.09401488e-01, -9.63264108e-01, -2.45849580e-01,
          2.71768260e+00, 2.89072466e+00, -1.58514309e+00,
          -1.03888881e+00, -3.72834396e+00, -8.62892210e-01 ]
      - [ 7.99956501e-01, -4.71575856e-01, 2.32056975e-01,
          1.15671265e+00, 5.10834530e-02, 8.93907547e-01, 5.91728806e-01,
          4.77703303e-01, -1.16858058e-01, 3.15644056e-01,
          -1.94303393e-01, 6.90300837e-02 ]
      - [ -1.25440753e+00, -1.82570016e+00, -1.70685673e+00,
          -9.53297257e-01, -3.31699252e+00, -1.53576946e+00,
          4.41016436e-01, 3.37702245e-01, -9.56384957e-01,
          -1.45562661e+00, -5.37454081e+00, -9.86774683e-01 ]
      - [ 5.45303166e-01, -3.02118123e-01, 3.17282706e-01,
          8.44460189e-01, 4.48365897e-01, 1.04651666e+00, 1.65971422e+00,
          1.41339242e+00, -4.27781880e-01, -1.53793260e-01,
          -7.98639715e-01, -3.45601052e-01 ]
      - [ -3.55437323e-02, 1.19849801e-01, 5.82677245e-01,
          1.70484811e-01, 1.21709657e+00, 1.11329126e+00, 4.18597400e-01,
          -6.73835203e-02, 3.63936335e-01, 3.06993335e-01,
          3.20882738e-01, 6.05099872e-02 ]
      - [ 5.45303166e-01, -3.02118123e-01, 3.17282706e-01,
          8.44460189e-01, 4.48365897e-01, 1.04651666e+00, 1.65971422e+00,
          1.41339242e+00, -4.27781880e-01, -1.53793260e-01,
          -7.98639715e-01, -3.45601052e-01 ]
      - [ -1.27700353e+00, 2.92048335e+00, 2.58549976e+00,
          -1.73505521e+00, -2.24205002e-01, -6.05254948e-01,
          -5.67648947e-01, -5.64153075e-01, -1.05067325e+00,
          -1.44606709e+00, 3.12305033e-01, -9.84791636e-01 ]
      - [ 1.17900825e+00, 7.80828774e-01, 5.10456204e-01, 8.76760423e-01,
          8.92771363e-01, -1.78398401e-01, -4.64335322e-01,
          -5.87072909e-01, 2.58800775e-01, -1.07123047e-01,
          7.32857466e-01, -3.08732033e-01 ]
      - [ 1.74334621e+00, 1.07647300e+00, 1.25958169e+00,
          -6.10120781e-02, -7.54289806e-01, -6.80134654e-01,
          -8.12612697e-02, -2.84860194e-01, -8.18541229e-01,
          -9.38492298e-01, -3.31799656e-01, -8.21594596e-01 ]
      - [ 2.27804542e+00, 1.25776708e+00, 8.93482715e-02, 1.99814034e+00,
          2.00428843e+00, -3.46026719e-01, 3.32879156e-01,
          -7.12703690e-02, 1.09320641e-01, -1.07112184e-01,
          4.97383595e-01, -3.08723330e-01 ]
      - [ 9.41865087e-01, 2.40498021e-01, 5.50949238e-02, 1.34905028e+00,
          1.39110327e+00, 6.07116044e-01, 1.23405051e+00, 1.01030838e+00,
          -4.74620253e-01, -1.49787799e-01, -1.36205196e-01,
          -3.42474490e-01 ]
      - [ 8.77615154e-01, 5.15099883e-01, -8.85004222e-01,
          -2.29713619e-01, -6.79308295e-01, -2.02463460e+00,
          -8.23263407e-01, -3.30009192e-01, -7.01250672e-01,
          -4.72229630e-01, 3.24789554e-01, -5.71515560e-01 ]
      - [ -7.13607907e-01, -3.01805437e-01, -2.07017168e-01,
          -9.16551173e-01, 4.70812798e-01, 5.58420159e-02,
          -1.34112859e+00, -1.28744686e+00, 1.31422794e+00,
          1.22775781e+00, 1.30768824e+00, 1.15263593e+00 ]
      - [ 4.25244331e-01, -5.79138637e-01, 5.78900397e-01,
          1.01306403e+00, 6.53183639e-01, 1.99745739e+00, 3.28736305e+00,
          2.54472566e+00, -5.68114877e-01, -3.19249064e-01,
          -1.58233953e+00, -4.68567222e-01 ]
      - [ -1.14420414e+00, 1.28578258e+00, 1.73141193e+00,
          -1.51699758e+00, 6.57983482e-01, 6.22204185e-01,
          -3.75800878e-01, -4.57515717e-02, -7.82175958e-01,
          -6.65119648e-01, 5.91998219e-01, -6.86603963e-01 ]
      - [ -1.09245531e-01, -8.55284184e-02, -3.26064348e-01,
          -4.97683853e-01, -5.72011590e-01, -8.61500859e-01,
          1.56730264e-01, 7.10637495e-02, -3.48427176e-01,
          -3.25341552e-01, -5.81406772e-01, -4.72864568e-01 ]
      - [ -4.88847405e-01, -6.88875675e-01, -3.11815768e-01,
          -8.61570477e-01, -1.56702161e+00, -7.18270183e-01,
          9.77173865e-01, 1.23223650e+00, -8.01050484e-01,
          -5.88845074e-01, -2.52630305e+00, -6.43056691e-01 ]
      - [ 9.67578411e-01, -1.35318920e-01, 9.53377962e-01,
          1.68259144e+00, 1.04051423e+00, 2.37859821e+00, 1.68355376e-01,
          1.28993139e-01, 1.66189700e-01, 3.93587977e-01, 5.91429889e-01,
          1.47285894e-01 ]
      - [ -7.93286383e-01, -1.58632231e+00, -1.07125092e+00,
          1.91019531e-02, -1.38111508e+00, -1.46695576e-03,
          2.91191506e+00, 2.51803565e+00, -2.12887108e-01,
          1.70137167e-01, -4.25749207e+00, -6.98866695e-02 ]
      - [ 6.97901964e-01, -5.40008187e-01, -3.16198945e-01,
          1.67596638e+00, -4.37813699e-01, 7.67964244e-01,
          4.57423240e-01, 2.80421436e-01, -7.72602558e-01,
          -1.20090437e+00, -3.18399668e-01, -9.20157909e-01 ]
      - [ 1.40486378e-02, -1.03704965e+00, -4.63706255e-01,
          1.12689579e+00, 4.63361770e-01, 1.31772387e+00, 2.00023830e-01,
          -2.08588436e-01, 1.12459123e+00, 1.40616059e+00,
          3.08612168e-01, 1.40749860e+00 ]
      - [ 1.88052881e+00, -5.47674894e-02, 7.16506898e-01,
          2.86232233e+00, 1.41470647e+00, 1.82904172e+00, 2.41450936e-01,
          9.53553617e-02, -1.01228669e-01, -1.07858993e-01,
          6.37495577e-01, -3.09320867e-01 ]
      - [ 2.75740951e-01, -7.70808280e-01, -1.38577119e-01,
          1.05382693e+00, 5.04757762e-01, 1.16706681e+00, 9.46829438e-01,
          6.44035101e-01, 4.40065473e-01, 7.84203887e-01,
          -2.22585291e-01, 5.79839945e-01 ]
      - [ 1.34875274e+00, 3.34376484e-01, 5.93315125e-01, 8.75121593e-01,
          3.48917276e-01, 1.15748905e-01, -6.51481986e-01,
          -8.51522982e-01, 5.07174909e-01, 3.44417274e-01,
          7.78529227e-01, 9.76063386e-02 ]
      - [ 1.45298982e+00, -1.73766315e-02, 4.76374805e-01,
          1.73527241e+00, -1.30009353e-01, 5.64439535e-01,
          3.76116931e-01, 1.02422261e+00, -1.46821678e+00,
          -1.21940815e+00, -1.26499578e-01, -9.25961375e-01 ]
      - [ 8.33100915e-01, -5.99793792e-01, -1.96561918e-01,
          1.13995063e+00, -8.33612263e-01, 4.24748547e-02,
          8.34275603e-01, 1.21585858e+00, -7.84816623e-01,
          -5.79947293e-01, -1.11282480e+00, -6.37809515e-01 ]
      - [ 7.38201380e-01, 1.84481442e+00, 4.10798460e-01,
          -5.91549397e-01, 1.43498087e+00, -8.40893865e-01,
          -2.25803584e-01, -5.08365452e-01, 1.41653344e-01,
          -8.97913098e-01, 5.99933326e-01, -8.03640544e-01 ]
      - [ 1.21823585e+00, -2.01129407e-01, -2.08901078e-01,
          2.30633959e-01, -1.90355253e+00, -1.03391182e+00,
          3.68568480e-01, 1.53732687e-01, -1.06715012e+00,
          -9.82652307e-01, -1.96437085e+00, -8.40307415e-01 ]
      - [ 8.07333961e-02, -9.16983902e-01, -3.51108789e-01,
          1.21832311e+00, 4.51171011e-01, 1.27898932e+00, 1.36563492e+00,
          7.62128890e-01, 8.02080333e-01, 1.23211098e+00,
          -5.18718898e-01, 1.15868771e+00 ]
      - [ 7.45929480e-01, 8.91927779e-01, -9.80021358e-01,
          -6.18721306e-01, -4.89708602e-01, -2.14865041e+00,
          -1.36289477e+00, -1.36030304e+00, 7.41317153e-01,
          -4.09751296e-01, 1.03016531e+00, -5.30718088e-01 ]
      - [ -8.01190555e-01, -1.43490291e+00, -1.58404338e+00,
          -1.37736523e+00, -2.93881536e+00, -2.46739459e+00,
          -1.55922723e+00, -1.24761724e+00, 1.08201981e+00,
          9.49119329e-01, 4.67042595e-01, 7.82671392e-01 ]
      - [ 3.08795714e+00, 6.09586835e-01, 1.40933323e+00, 2.15149188e+00,
          5.46243936e-02, 6.12749875e-01, 2.52187550e-01, 3.84908974e-01,
          -8.98059309e-01, -1.03963089e+00, 8.02967101e-02,
          -8.63180876e-01 ]
      - [ -3.55437323e-02, 1.19849801e-01, 5.82677245e-01,
          1.70484811e-01, 1.21709657e+00, 1.11329126e+00, 4.18597400e-01,
          -6.73835203e-02, 3.63936335e-01, 3.06993335e-01,
          3.20882738e-01, 6.05099872e-02 ]
      - [ -9.25171912e-01, -1.20521879e+00, -7.31402636e-01,
          -4.61730093e-01, -3.79802436e-01, 5.40492773e-01,
          6.32158101e-01, 1.74398765e-01, 8.80203903e-01, 1.13053846e+00,
          -6.39723659e-01, 1.01966143e+00 ]
      - [ -8.46679449e-01, -7.91249514e-01, -6.84904695e-01,
          -3.75698917e-02, 1.64706457e+00, 8.43314528e-01,
          8.79218951e-02, -9.02630568e-01, 2.25016403e+00,
          2.46233177e+00, 6.08157694e-01, 3.20396328e+00 ]
      - [ -4.22059834e-01, -8.99407804e-01, -8.87339771e-01,
          -7.57889822e-02, -1.31743297e-01, -2.86616594e-01,
          -1.49281487e-01, -2.57246315e-01, 7.74497390e-01,
          9.12822962e-01, 1.12285703e-01, 7.37000227e-01 ]
      - [ -6.46854579e-01, -6.55693293e-01, -2.42474899e-01,
          -8.88325572e-01, -4.42211509e-01, 1.48437828e-01,
          9.40964878e-01, 1.43992376e+00, -4.32248116e-01,
          -8.35400820e-02, -1.09626138e+00, -2.89736241e-01 ]
      - [ 2.73716021e+00, 1.26213193e+00, 5.67448854e-01, 2.72010183e+00,
          2.65979195e+00, 7.66885877e-01, 1.21741557e+00, 3.18202704e-01,
          -5.05770445e-02, -2.62506753e-01, 3.37255925e-01,
          -4.27757323e-01 ]
      - [ 6.07459962e-01, -6.06024086e-01, 2.28107348e-01,
          1.10304773e+00, 4.63356711e-02, 1.15480363e+00, 1.52106678e+00,
          1.21270430e+00, -1.21779047e-01, 4.58445013e-01,
          -8.75356257e-01, 2.14445546e-01 ]
      - [ 1.14388490e+00, -3.52372617e-01, 1.94248065e-01,
          1.62187719e+00, -5.48820734e-01, 4.34473544e-01,
          -3.43082547e-01, 9.11578774e-01, -2.03731585e+00,
          -1.45260489e+00, 3.11797798e-01, -9.86152232e-01 ]
      - [ -4.97168481e-01, -1.06574249e+00, -4.37768430e-01,
          2.53222555e-01, 3.09646815e-01, 1.33104992e+00, 3.82026982e+00,
          2.97877836e+00, -4.13660914e-01, -1.78751852e-02,
          -2.45978713e+00, -2.35551134e-01 ]
      - [ 9.88921702e-01, 6.59473389e-02, 9.84209836e-01, 7.87188113e-01,
          -1.08780611e+00, 3.50722462e-01, 1.75905561e+00,
          2.35858154e+00, -2.04353285e+00, -1.39358413e+00,
          -2.28763103e+00, -9.73186016e-01 ]
      - [ -1.11736870e+00, 1.14006865e+00, 1.30161166e+00,
          -1.38732433e+00, 1.24300969e+00, 6.67419374e-01,
          -7.06936657e-01, -1.00208807e+00, 7.88747787e-01,
          -2.07894072e-01, 9.69239652e-01, -3.87137532e-01 ]
      - [ 6.34252667e-01, -8.53247762e-01, -6.29362687e-02,
          1.58358240e+00, -3.11694652e-01, 8.75068009e-01,
          1.23162961e+00, 1.51979303e+00, -9.52672064e-01,
          -6.10228062e-01, -8.95284593e-01, -6.55523717e-01 ]
      - [ 1.72999835e+00, 3.26035738e-01, 2.92196333e-01, 1.77744734e+00,
          1.22902110e-01, 4.53621149e-01, 4.92894173e-01, 1.24773717e+00,
          -1.36191487e+00, -1.14469874e+00, -1.53635591e-01,
          -9.01603460e-01 ]
      - [ 1.91668734e-01, -5.13665140e-01, -3.86217713e-01,
          4.16999817e-01, -9.55853760e-02, 1.28863659e-03,
          1.54295874e+00, 9.76931930e-01, 1.74009964e-01, 3.12206596e-01,
          -1.32771373e+00, 6.56405762e-02 ]
      - [ -6.57440498e-02, -3.92081618e-01, -8.16044271e-01,
          6.31714463e-01, 7.92774737e-01, -5.92977516e-02,
          8.83282900e-01, 8.95961404e-01, 1.37183681e-01, 5.29838741e-01,
          -2.92137474e-01, 2.90519804e-01 ]
      - [ 1.66608408e-01, -4.05160874e-01, 1.51487282e-02,
          1.01389849e+00, 1.35932815e+00, 1.27007854e+00, 6.18802547e-01,
          -1.59715921e-01, 1.07594895e+00, 1.03539956e+00,
          2.87314385e-01, 8.93569469e-01 ]
      - [ 1.54066384e+00, 2.99932569e-01, 9.23446059e-01, 1.96926129e+00,
          -2.20355675e-01, 1.12903178e+00, 2.62402296e+00,
          2.75974321e+00, -2.13582134e+00, -1.62283397e+00,
          -1.90704119e+00, -1.01494098e+00 ]
      - [ 9.60615575e-01, 2.04082519e-01, 6.20366037e-01, 5.84093392e-01,
          -6.09434187e-01, 1.45441294e-01, 8.15036476e-01,
          1.21854627e+00, -1.25644505e+00, -8.72703195e-01,
          -9.68661368e-01, -7.92120755e-01 ]
      - [ -1.08785367e+00, 3.01475197e-01, 4.47974741e-01,
          -1.16151595e+00, 1.45278245e-01, -1.54200748e-01,
          -1.08886755e+00, -1.43834329e+00, 1.68350911e+00,
          3.87090147e-01, 1.01206994e+00, 1.40659660e-01 ]
      - [ 3.76614273e-01, 7.45582223e-01, -7.60490417e-01,
          -3.56801927e-01, 9.25728381e-01, -1.59671962e+00,
          -1.23514488e-01, -1.31724104e-01, -3.87930185e-01,
          -3.68160874e-01, 2.94293255e-01, -5.02605319e-01 ]
      - [ 4.65828389e-01, -8.30194831e-01, -8.82184982e-01,
          1.22733569e+00, -2.30442375e-01, -6.59919918e-01,
          -4.63553779e-02, -1.04674838e-01, 7.75296390e-01,
          1.14583850e+00, -5.33010485e-03, 1.04031193e+00 ]
      - [ 9.29523036e-02, -1.14940846e+00, -1.21467447e+00,
          -4.75336969e-01, -2.97363544e+00, -2.17641735e+00,
          -1.10904825e+00, -5.76424897e-01, -2.32337385e-01,
          -1.81125209e-01, -6.67871952e-01, -3.66746843e-01 ]
      - [ 6.43322825e-01, -9.31450009e-01, -9.15347457e-01,
          5.97309470e-01, -1.67225587e+00, -1.28922057e+00,
          -1.18751311e+00, -1.06568670e+00, 5.31896532e-01,
          5.29452085e-01, 5.97027361e-01, 2.90101737e-01 ]
      - [ 7.41637200e-02, -1.17190766e+00, -6.04164958e-01,
          9.73262787e-01, -1.30191612e+00, 5.17400801e-02,
          5.34478784e-01, 9.22917366e-01, -6.22178078e-01,
          -2.95976698e-01, -1.14995956e+00, -4.52001214e-01 ]
      - [ 1.06119001e+00, 7.31868669e-02, 3.15101832e-01, 6.24867558e-01,
          -1.55634487e+00, -8.05639684e-01, -1.29645038e+00,
          -5.29012859e-01, -8.84414792e-01, -1.40978718e+00,
          8.42902780e-01, -9.76898670e-01 ]
      - [ -1.16126418e+00, -1.62097049e+00, -1.66526675e+00,
          -9.04242218e-01, -2.17242217e+00, -1.55168569e+00,
          1.88952193e-01, 5.80655694e-01, 1.67570129e-01, 2.45092750e-01,
          -2.41471553e+00, 5.07542689e-04 ]
      - [ 1.99895576e-01, -1.01584470e+00, -6.20262086e-01,
          1.28566611e+00, 8.09685513e-03, 7.00485408e-01, 2.95569688e-01,
          -5.62129244e-02, 1.05292892e+00, 1.46908891e+00,
          -4.32370137e-03, 1.50074685e+00 ]
      - [ 1.15627289e-01, -1.90942928e-01, -1.18121527e-01,
          1.50543839e-01, -3.08216482e-01, 3.66838872e-01,
          8.40278089e-01, 9.44381356e-01, -1.01919711e+00,
          -7.25707293e-01, -7.94649065e-01, -7.19365954e-01 ]
      - [ -2.08841473e-01, 2.26789545e-02, 4.24823254e-01,
          -1.02480195e-01, 8.49978030e-01, 9.36087370e-01,
          7.22746015e-01, 5.06096423e-01, 1.16909049e-01, 3.90315682e-01,
          -3.39630544e-02, 1.43946603e-01 ]
      - [ 9.69627738e-01, 4.00949538e-01, -1.11547995e+00,
          9.01564538e-01, 6.63187265e-01, -1.23454857e+00,
          1.51368394e-01, 6.23583674e-01, -8.80684793e-01,
          -6.73747540e-01, 4.20508087e-02, -6.91368222e-01 ]
      - [ -4.32503551e-01, -1.31065643e+00, -8.41537058e-01,
          -6.30038977e-02, -2.41007686e+00, -1.08707380e+00,
          -3.05005223e-01, 5.97122312e-01, -1.66798711e+00,
          -1.27999330e+00, -1.41906059e+00, -9.43906009e-01 ]
      - [ 9.47449625e-01, -3.26810747e-01, 3.72731209e-01,
          5.72854996e-01, -1.50163651e+00, -6.91623613e-02,
          2.31415081e+00, 1.73253357e+00, -1.61411560e+00,
          -1.33067536e+00, -3.68924737e+00, -9.57673550e-01 ]
      - [ -5.36006808e-01, -2.50730813e-01, -4.58620815e-03,
          -3.90294582e-01, -9.78537463e-03, 3.67683023e-01,
          6.62046909e-01, 9.19039845e-01, -5.85889339e-01,
          -2.44020075e-01, -5.01261294e-01, -4.14154619e-01 ]
      - [ -9.35285762e-02, 1.71398535e-01, 8.51540983e-01,
          4.23302084e-01, 3.30793834e+00, 3.12279558e+00, 4.23082876e+00,
          1.97753549e+00, -5.47681153e-02, 2.12549567e-01,
          -5.75411797e-01, -3.03597227e-02 ]
      - [ -5.19569337e-01, -7.35154748e-01, -3.31646979e-01,
          -5.97178102e-01, -9.07865345e-01, -2.99490005e-01,
          3.22869688e-01, 6.25800014e-01, -2.28944927e-01,
          -9.34325084e-02, -8.51652265e-01, -2.97734350e-01 ]
      - [ -2.60366499e-02, -9.16232109e-01, -8.87463212e-01,
          1.66861916e+00, -6.67034447e-01, 4.97369111e-01,
          2.53331041e+00, 1.95892715e+00, -1.57350194e+00,
          -1.39449537e+00, -2.46088696e+00, -9.73397851e-01 ]
      - [ -4.59843546e-01, -8.05991054e-01, -6.78458273e-01,
          -5.02277672e-01, -1.55173445e+00, -9.64225233e-01,
          1.59474254e+00, 1.76487887e+00, -7.46207595e-01,
          -2.47321725e-01, -3.48642349e+00, -4.16595072e-01 ]
      - [ 1.46825755e+00, 4.05220091e-01, 2.89930701e-01, 3.70799899e-01,
          -8.00072074e-01, -8.19086194e-01, -2.89542854e-01,
          -4.71607298e-02, -7.04345584e-01, -6.13432765e-01,
          -1.17571719e-01, -6.57374799e-01 ]
      - [ 2.40142155e+00, 2.42167071e-01, 3.81954968e-01, 9.82159376e-01,
          -1.51131248e+00, -5.06387591e-01, -1.02501832e-01,
          -1.44095123e-02, -9.75209117e-01, -1.17310715e+00,
          -7.08609521e-01, -9.11155760e-01 ]
      - [ 1.53233007e-01, -6.63345397e-01, -2.45202295e-02,
          4.27771389e-01, -9.35244933e-03, 7.35819519e-01,
          1.87776148e-01, 3.65218103e-01, 3.18779424e-02, 3.18411320e-01,
          3.98259796e-02, 7.17625320e-02 ]
      - [ -2.64479995e-01, -6.35360420e-01, 2.81739999e-02,
          5.61352253e-01, 9.05014753e-01, 1.74591374e+00, 3.37011075e+00,
          2.49664617e+00, -4.84246910e-01, -1.22854672e-01,
          -1.56171191e+00, -3.21267217e-01 ]
      - [ -7.85307944e-01, 1.24892509e+00, 1.69709444e+00,
          -1.29896760e+00, -1.77460611e-01, 4.76128519e-01,
          -1.78815164e-02, 2.84550905e-01, -1.30632770e+00,
          -1.26489711e+00, -2.72411872e-02, -9.39586163e-01 ]
      - [ 9.32088614e-01, -1.37976319e-01, 5.32743037e-01,
          1.94933391e+00, 2.36338433e-02, 1.24509728e+00, 6.80285320e-02,
          6.24600828e-01, -1.18566167e+00, -1.06594968e+00,
          2.66545415e-01, -8.73262703e-01 ]
      - [ 1.18344009e+00, -3.41112018e-01, 1.93814516e-01,
          2.58656764e+00, 1.13869965e-01, 1.44116318e+00,
          -3.00939232e-01, 9.10430908e-01, -1.19520497e+00,
          -1.43222582e+00, 6.23758256e-01, -9.81848896e-01 ]
      - [ -6.62952304e-01, -1.31299603e+00, -9.38102424e-01,
          1.61983997e-01, -5.10370016e-01, 5.17460227e-01,
          4.79252726e-01, -2.17080712e-01, 1.29295290e+00,
          1.42612946e+00, -5.16102195e-01, 1.43689954e+00 ]
      - [ -1.05918968e+00, 1.04419887e+00, 3.99669409e-01,
          -1.23061788e+00, 1.22847527e-01, -7.99036086e-01,
          -8.79619479e-01, -8.89392912e-01, -1.72429025e-01,
          -1.39007583e-01, 7.41821885e-01, -3.34024519e-01 ]
      - [ -3.57407272e-01, -1.40276134e+00, -1.63056672e+00,
          1.28598377e-01, -1.48884535e+00, -1.65539849e+00,
          -9.76360440e-01, -9.48246181e-01, 1.49480307e+00,
          1.90366507e+00, 2.84038186e-01, 2.19240260e+00 ]
      - [ -7.16502488e-01, 9.52788651e-01, 1.13596046e+00,
          -1.12983251e+00, 7.53459513e-01, 4.09623444e-01,
          -1.29683107e-01, -3.82535249e-01, -1.08676665e-01,
          -3.53435636e-01, 4.27031070e-01, -4.92468953e-01 ]
      - [ -2.33981758e-01, 4.87057894e-01, -6.29198104e-02,
          -3.72279614e-01, 3.54868740e-01, -2.22821593e-01,
          4.21119481e-01, 3.93727869e-01, -5.69265962e-01,
          -6.22484684e-01, -2.17003718e-01, -6.62578821e-01 ]
      - [ -5.91257930e-01, -4.24639165e-01, -1.54372609e+00,
          -7.37116516e-01, 7.75355577e-01, -1.79648137e+00,
          -2.96377748e-01, -2.17733964e-01, 3.81414205e-01,
          3.39500487e-01, 3.44092518e-01, 9.26973224e-02 ]
      - [ 9.36547101e-01, -1.81292668e-01, 2.74777204e-01,
          2.14432073e+00, -2.79004067e-01, 1.07021987e+00,
          -1.18226039e+00, -4.30278569e-01, -1.03017199e+00,
          -1.42563343e+00, 1.17559540e+00, -9.80417550e-01 ]
      - [ -9.95158672e-01, -9.94793892e-01, -1.16157055e+00,
          -5.54940104e-01, 1.05033800e-01, -4.56060886e-01,
          -5.00499904e-01, -6.78957343e-01, 1.42059028e+00,
          1.67669654e+00, 4.66664076e-01, 1.82077312e+00 ]
      - [ 2.95770735e-01, 4.80392396e-01, 9.09505188e-01, 7.15857089e-01,
          8.38760018e-01, 1.28588331e+00, 9.45421278e-01, 8.58707428e-01,
          -8.45899880e-01, -6.75013661e-01, -1.23578288e-01,
          -6.92064643e-01 ]
      - [ 1.98454893e+00, 7.46615171e-01, 1.31217468e+00, 1.37434733e+00,
          6.47667766e-01, 6.51213527e-01, -1.69111490e-01,
          -5.38722932e-01, 2.49982581e-01, 2.14494437e-01,
          5.55185437e-01, -2.85281390e-02 ]
      - [ 1.03282583e+00, 1.82078218e+00, 2.07495642e+00, 5.70685506e-01,
          7.50781670e-02, 4.61800307e-01, 6.89501405e-01, 1.95018172e-01,
          -1.09423828e+00, -1.19527543e+00, -4.24807966e-01,
          -9.18362498e-01 ]
      - [ -1.53631532e+00, 2.80418420e+00, 2.53301120e+00,
          -2.22314334e+00, -8.55455220e-01, -2.77252138e-01,
          -1.24380016e+00, -1.24918962e+00, -2.71875501e-01,
          -1.50288284e+00, 9.02234018e-01, -9.95985508e-01 ]
      - [ 6.58719003e-01, -2.61576563e-01, 5.58414340e-01,
          1.11124480e+00, 9.91896391e-01, 1.71088362e+00, 2.34143305e+00,
          1.72382200e+00, -5.67318857e-01, -2.44368747e-01,
          -8.21369410e-01, -4.14412588e-01 ]
      - [ -8.55703950e-01, -1.15278387e+00, -7.74915874e-01,
          -4.68959302e-01, -1.86334267e-01, 5.68657398e-01,
          1.36912596e+00, 1.25803053e+00, 3.47746104e-01, 7.39698589e-01,
          -1.16605568e+00, 5.27158320e-01 ]
      - [ 1.36564994e+00, -3.53438288e-01, 2.12186292e-01,
          2.60039783e+00, 9.20650363e-01, 8.84629667e-01, 1.74870700e-01,
          2.15819553e-01, -4.70847458e-01, -6.99001431e-01,
          4.66075629e-01, -7.05124676e-01 ]
      - [ -1.52569163e+00, -1.75640929e+00, -1.72494459e+00,
          -1.47908783e+00, -1.52115822e+00, -1.19898117e+00,
          -4.32254046e-01, -5.15261889e-01, 1.47629929e+00,
          1.53009725e+00, -6.10562027e-01, 1.59281790e+00 ]
      - [ -5.73230863e-01, -4.88781154e-01, -1.34216160e-01,
          -2.47025102e-01, 9.97032404e-01, 9.37532604e-01,
          3.27556312e-01, -1.96261890e-02, 6.61691844e-01,
          7.82159269e-01, 2.78602749e-01, 5.77400506e-01 ]
      - [ 1.52722847e+00, -3.31708305e-02, 2.09542245e-01,
          1.71388018e+00, 2.17313737e-01, 5.75098336e-01, 9.73757356e-02,
          5.70716977e-01, -8.45242739e-01, -8.35050285e-01,
          2.25060776e-01, -7.74392843e-01 ]
      - [ 1.59710288e+00, 7.38281190e-01, -6.12099588e-01,
          1.33417642e+00, 1.52158356e+00, -1.00386155e+00,
          3.07736725e-01, 5.54856956e-01, -8.64606798e-01,
          -8.51833284e-01, 3.02491397e-01, -7.82371938e-01 ]
      - [ -4.79030013e-01, -6.61725923e-02, 2.68682897e-01,
          -4.19272751e-01, -1.43560413e-02, 4.07766700e-01,
          1.52254388e-01, 6.32621825e-01, -6.00554049e-01,
          -2.06196725e-01, -4.89240326e-02, -3.85854006e-01 ]
      - [ 1.06284821e+00, 3.46086383e-01, 8.34488750e-01, 3.82502496e-01,
          -1.98964387e-01, 4.33821619e-01, 1.12097645e+00,
          1.16201198e+00, -7.89927483e-01, -5.65787673e-01,
          -9.31071222e-01, -6.29387319e-01 ]
      - [ -7.13257611e-01, -1.07526350e+00, -8.29030871e-01,
          3.86731178e-02, 9.70376492e-01, 8.58454764e-01, 1.64228559e-01,
          -4.96928871e-01, 1.72351360e+00, 2.04259396e+00,
          3.94359708e-01, 2.43109298e+00 ]
      - [ -1.35369039e+00, 6.74386382e-01, -1.85218990e-01,
          -1.49632084e+00, -3.23576242e-01, -1.18899143e+00,
          -1.36327767e+00, -1.37988663e+00, 6.67992711e-01,
          -3.57235223e-01, 1.10964084e+00, -4.95093614e-01 ]
      - [ 1.34360027e+00, 1.24997504e-01, -9.11931992e-02,
          7.83392906e-01, -6.86508477e-01, -5.27976334e-01,
          -1.06371844e+00, -1.09772873e+00, 3.45066786e-01,
          -3.22811007e-01, 8.30397487e-01, -4.71081614e-01 ]
      - [ -1.06550705e+00, -1.02631962e+00, -1.03711522e+00,
          -1.08246195e+00, -1.19227123e+00, -9.42207217e-01,
          -4.97661471e-01, -7.11397156e-02, 2.58410633e-01,
          4.36327398e-01, -2.07803145e-01, 1.91334173e-01 ]
      - [ 1.15327394e+00, 1.27325475e+00, 1.23180187e+00, 1.72065198e-01,
          4.43760782e-01, -8.14110413e-02, 1.88598052e-01,
          -6.42852411e-02, -6.30684793e-01, -7.58271337e-01,
          8.18371773e-02, -7.36305356e-01 ]
      - [ 1.68343484e+00, 1.44098079e+00, -1.79672584e-01,
          -4.04805422e-01, -8.79914284e-01, -1.99504745e+00,
          -1.26503873e+00, -1.38927007e+00, 2.25525990e-01,
          -9.13440943e-01, 8.29984903e-01, -8.10596585e-01 ]
      - [ 1.20291770e+00, 5.59809990e-02, 5.50487161e-01, 1.60702276e+00,
          -8.57756734e-01, 4.53363627e-01, -9.85832334e-01,
          -9.53893363e-02, -1.47011018e+00, -1.51812148e+00,
          8.24874043e-01, -9.98745620e-01 ]
      - [ 4.51017588e-01, -7.25680590e-01, -6.49743974e-01,
          2.37164244e-01, -1.73162436e+00, -8.20239723e-01,
          -1.03035617e+00, -1.05377889e+00, 4.52507377e-01,
          5.19147627e-02, 3.88375491e-01, -1.75876781e-01 ]
      - [ 2.31830692e+00, 1.06043839e+00, 1.57444561e+00, 9.42242980e-01,
          -2.49858320e-01, -6.33992404e-02, -5.58482528e-01,
          -8.11529994e-01, 5.46787202e-01, -6.12021267e-01,
          5.20758629e-01, -6.56560063e-01 ]
      - [ -6.35790288e-01, -2.62870252e-01, -8.67318809e-02,
          -8.18441927e-01, 9.47812274e-02, 1.79985523e-01,
          -4.17819619e-02, -1.37015432e-01, 7.96359554e-02,
          -1.17981836e-01, 1.26888931e-01, -3.17396164e-01 ]
      - [ 2.63545841e-01, -8.91586304e-01, -7.67323494e-01,
          1.07180938e-01, -1.78288209e+00, -1.14001012e+00,
          8.83396924e-01, 2.05558968e+00, -1.74557042e+00,
          -1.20744169e+00, -2.64805055e+00, -9.22225475e-01 ]
      - [ -3.06088239e-01, -6.30654633e-01, -2.63481922e-02,
          3.91963482e-01, 1.22079563e+00, 1.90983045e+00, 1.11653543e+00,
          6.65298402e-01, 1.42984569e-01, 2.22248957e-01, 6.63582562e-03,
          -2.12087035e-02 ]
      - [ -4.03903276e-01, -3.43918413e-01, -1.00037909e+00,
          -2.70589918e-01, 7.58314580e-02, -7.23706603e-01,
          -8.67309391e-01, -6.89507365e-01, 6.25709176e-01,
          6.75118089e-01, 7.73316383e-01, 4.52267528e-01 ]
      - [ 3.68908024e+00, 2.39257145e+00, 3.22668982e+00, 9.01802242e-01,
          3.46890390e-01, 5.16854167e-01, -1.91485122e-01,
          -6.62733376e-01, -2.59494096e-01, -9.16268170e-01,
          4.54617828e-01, -8.11851621e-01 ]
      - [ -1.15973747e+00, -8.92791986e-01, -1.19007683e+00,
          -1.14700282e+00, -4.35011119e-01, -1.15697753e+00,
          -3.23376954e-01, -5.28440140e-02, 3.72823030e-01,
          4.81988311e-01, -6.33183718e-02, 2.39283830e-01 ]
      - [ 1.01352036e+00, 1.24783017e-01, 7.02180982e-01, 9.82465863e-01,
          1.16375595e-01, 7.91556835e-01, -6.83042780e-02,
          -2.56845057e-01, 1.04058124e-02, 6.81766495e-02,
          3.14801514e-01, -1.61663249e-01 ]
      - [ 1.47652531e+00, 2.57805496e-01, 1.09886646e+00, 1.43469226e+00,
          -5.61766386e-01, 4.62972045e-01, -4.58686262e-01,
          3.90284300e-01, -1.20112610e+00, -1.01513231e+00,
          3.90049398e-01, -8.53521705e-01 ]
      - [ 1.45298982e+00, -1.73766315e-02, 4.76374805e-01,
          1.73527241e+00, -1.30009353e-01, 5.64439535e-01,
          3.76116931e-01, 1.02422261e+00, -1.46821678e+00,
          -1.21940815e+00, -1.26499578e-01, -9.25961375e-01 ]
      - [ -1.62062931e+00, -1.99311233e+00, -1.90980268e+00,
          -1.59768617e+00, -2.20536709e+00, -1.36339140e+00,
          -4.12273288e-01, -6.14308774e-01, 1.93918216e+00,
          2.18922186e+00, -1.35028756e+00, 2.69224787e+00 ]
      - [ 3.98734331e-01, 3.52151990e-02, 2.75034696e-01,
          -2.50517070e-01, -2.31403685e+00, -1.09207976e+00,
          -1.42773390e-01, 5.48758388e-01, -1.77575052e+00,
          -1.64125192e+00, -1.69837701e+00, -1.01728928e+00 ]
      - [ -9.90217626e-01, -3.17266047e-01, -2.82690108e-01,
          -1.02529705e+00, 3.81821431e-02, -2.27364168e-01,
          -8.65621209e-01, -1.09035158e+00, 1.11750817e+00,
          7.05984116e-01, 7.89763689e-01, 4.87831742e-01 ]
      - [ 1.46818995e+00, 1.78124428e-01, 1.33851898e+00, 1.02434409e+00,
          -6.94056869e-01, 8.09887826e-01, 3.46424508e+00,
          3.19565773e+00, -2.24676895e+00, -1.61521280e+00,
          -3.35015082e+00, -1.01392555e+00 ]
      - [ 3.56128141e-02, -1.40321001e-01, 1.09835945e-01,
          3.95328254e-01, 1.27034283e+00, 9.76151884e-01, 9.63642478e-01,
          8.51171732e-01, -1.21906891e-01, 2.67278522e-01,
          5.23115625e-04, 2.18186341e-02 ]
      - [ 2.90253818e-01, 1.08454514e+00, -1.15832758e+00,
          -1.33649099e+00, -1.19620585e+00, -2.42638850e+00,
          -1.55559909e+00, -1.56158841e+00, 5.57024658e-01,
          -9.52070057e-01, 1.08503914e+00, -8.27439785e-01 ]
      - [ 1.45298982e+00, -1.73766315e-02, 4.76374805e-01,
          1.73527241e+00, -1.30009353e-01, 5.64439535e-01,
          3.76116931e-01, 1.02422261e+00, -1.46821678e+00,
          -1.21940815e+00, -1.26499578e-01, -9.25961375e-01 ]
      - [ -1.40975344e+00, 3.61198187e-01, 6.01865947e-01,
          -1.60437500e+00, -3.48065555e-01, -1.87819853e-01,
          -5.68164229e-01, -4.78124559e-01, -1.32586107e-01,
          -7.00846493e-01, 3.45086098e-01, -7.06118703e-01 ]
      - [ -7.83122852e-02, 1.64094105e-01, 3.65217000e-01,
          -1.21251103e-02, 4.46284503e-01, 4.05143052e-01,
          5.13188779e-01, 5.39346874e-01, -7.27402389e-01,
          -6.08501852e-01, -1.22213945e-01, -6.54524803e-01 ]
      - [ -1.59285712e+00, -9.66304243e-01, -9.89944339e-01,
          -1.93273747e+00, -4.63938452e-02, -4.90164310e-01,
          -4.86471415e-01, -4.37366366e-01, 9.81116116e-01,
          1.17762339e+00, 3.40366483e-01, 1.08354235e+00 ]
      - [ 6.26460791e-01, -2.98864126e-01, 5.52557766e-01,
          7.54612744e-01, 2.08985671e-01, 1.15369320e+00, 1.98321009e+00,
          1.94955766e+00, -7.78077543e-01, -2.09952697e-01,
          -1.16147244e+00, -3.88692558e-01 ]
      - [ 1.47576380e+00, 6.91585481e-01, 1.30076766e+00, 2.21287191e-01,
          -2.33611155e+00, -8.15176249e-01, -6.00648582e-01,
          1.04407556e-01, -1.59167409e+00, -1.62696183e+00,
          -7.38443255e-01, -1.01548028e+00 ]
      - [ -6.10247776e-02, -1.23026419e+00, -5.80718160e-01,
          1.63661778e+00, -5.51178873e-01, 8.76932919e-01,
          -2.49017358e-01, -4.36904430e-01, 6.35051191e-01,
          4.24678326e-01, 2.73252428e-01, 1.79248452e-01 ]
      - [ 1.63536787e-01, 2.49273956e-01, -2.68553406e-01,
          8.62183213e-01, 1.27861035e+00, 2.25839764e-01, 2.44362921e-01,
          -7.37667158e-02, 9.38288774e-03, -2.57481784e-01,
          3.56297076e-01, -4.24074799e-01 ]
      - [ -5.17918825e-01, -1.69140434e+00, -1.77856112e+00,
          -5.22491097e-01, -2.97406054e+00, -2.38426185e+00,
          -1.46182048e+00, -1.17276394e+00, 9.30308104e-01,
          9.17893708e-01, 2.62478173e-01, 7.43345737e-01 ]
      - [ -6.54483676e-01, -9.74540591e-01, -1.22965360e+00,
          -7.47165143e-01, -1.93178105e+00, -1.45238400e+00,
          4.96699363e-01, 1.13916218e+00, -1.07565856e+00,
          -8.71904671e-01, -2.59483671e+00, -7.91751266e-01 ]
      - [ 1.23358357e+00, -2.34873965e-01, -1.35553822e-01,
          1.43092692e+00, 1.07428014e-01, -1.84443548e-01,
          -4.81787652e-01, -4.11558270e-01, 4.47708994e-01,
          6.24224603e-01, 5.70605457e-01, 3.94545227e-01 ]
      - [ -7.05759883e-01, -7.67377729e-04, 5.07250309e-01,
          -8.96130979e-01, 9.87813056e-01, 1.17576337e+00,
          5.35757363e-01, 3.31179053e-01, -1.47823513e-01,
          -1.07386380e-01, 1.37452126e-01, -3.08942765e-01 ]
      - [ -6.27658606e-01, -6.10344350e-01, -2.23435938e-01,
          -3.02476317e-01, 1.28287315e-01, 6.69667184e-01,
          -3.21542352e-01, -2.13086545e-01, 5.06662011e-01,
          7.59260893e-01, 4.51110572e-01, 5.50206900e-01 ]
      - [ -4.99303460e-01, -1.34706628e+00, -1.63657546e+00,
          -8.59878659e-01, -2.58558154e+00, -2.32465029e+00,
          -1.12481427e+00, -1.09888124e+00, 1.07490575e+00,
          1.00835490e+00, -3.61025125e-01, 8.58454943e-01 ]
      - [ -4.00203437e-01, 1.37676552e-01, -4.14691001e-01,
          -3.52597907e-02, 1.73369634e+00, 9.18991715e-02,
          -6.84125006e-01, -8.66697073e-01, 1.02986085e+00,
          7.10937083e-01, 1.03011096e+00, 4.93577808e-01 ]
      - [ -4.33730483e-01, 9.95300710e-01, 1.02254283e+00,
          -8.35567772e-01, -1.24401915e+00, -5.70762455e-01,
          2.80526672e-02, 2.27610737e-01, -9.19252574e-01,
          -1.48797762e+00, -8.77811730e-01, -9.93186712e-01 ]
      - [ -5.36006808e-01, -2.50730813e-01, -4.58620815e-03,
          -3.90294582e-01, -9.78537463e-03, 3.67683023e-01,
          6.62046909e-01, 9.19039845e-01, -5.85889339e-01,
          -2.44020075e-01, -5.01261294e-01, -4.14154619e-01 ]
      - [ 2.07834816e+00, 5.01550496e-01, 1.40244257e+00, 2.31232643e+00,
          7.57400751e-01, 1.77108228e+00, 4.07431507e+00, 3.53043032e+00,
          -1.70904410e+00, -9.94317710e-01, -1.95939040e+00,
          -8.45107019e-01 ]
      - [ 2.35389757e+00, 1.46166587e+00, 9.60478093e-03, 1.07562041e+00,
          1.10497153e+00, -7.45485067e-01, 2.32892424e-01,
          -5.88924950e-03, -5.06583154e-01, -1.17797101e+00,
          2.39885598e-01, -9.12755549e-01 ]
      - [ 1.50362170e+00, -2.12447584e-01, 4.83446449e-01,
          3.25791526e+00, 1.35020077e+00, 2.51621866e+00, 1.12537944e+00,
          2.49368668e-01, -2.42048651e-01, -7.26040184e-01,
          2.17679128e-01, -7.19541430e-01 ]
      - [ 8.39338422e-01, 8.48552704e-01, -1.59512326e-01,
          -4.25609946e-02, -5.50505698e-01, -7.47830868e-01,
          9.94443372e-02, -3.64440203e-01, -2.45850906e-01,
          -4.49904114e-01, -5.03030300e-01, -5.57135046e-01 ]
      - [ 1.37086797e+00, -5.01158237e-01, 2.23691285e-01,
          2.06660676e+00, 1.03912875e-01, 7.17884660e-01,
          -2.02429909e-02, 1.43266678e-01, -1.68323413e-01,
          -1.53279141e-01, 3.18427980e-01, -3.45200151e-01 ]
      - [ 1.37856185e+00, -1.13078237e-01, 8.31162691e-01,
          2.45590043e+00, 3.39442521e-01, 1.69230354e+00, 1.13711369e+00,
          1.90059650e+00, -1.58957219e+00, -1.10144615e+00,
          -3.02570879e-01, -8.86376083e-01 ]
      - [ -4.48001564e-01, -3.34181786e-01, 1.06991164e-01,
          -5.17981350e-01, -3.18367630e-01, 1.79828763e-01,
          -4.75928962e-01, -6.55416965e-01, 6.84087515e-01,
          5.91023862e-01, 3.83410484e-01, 3.57505649e-01 ]
      - [ 1.12791097e+00, -1.13979653e-01, -5.39198443e-02,
          1.23862469e+00, 2.46380374e-01, -1.30400494e-01,
          5.30971825e-01, 7.01647162e-01, -3.42158824e-01,
          -1.31513365e-02, -2.17917070e-01, -2.31579781e-01 ]
      - [ 1.10506272e+00, -2.83553660e-01, -5.19143283e-01,
          8.68478715e-01, -6.68934286e-01, -1.03780973e+00,
          4.09486175e-01, 7.88482904e-01, -5.17230451e-01,
          -1.48440719e-01, -8.27122271e-01, -3.41421396e-01 ]
      - [ 3.11277330e-01, 2.63307661e-01, 8.41108739e-01, 6.32930934e-01,
          1.13335192e+00, 1.40515804e+00, 1.44982994e+00, 1.20237362e+00,
          -5.18299878e-01, -4.32130732e-02, -2.99059808e-01,
          -2.56684750e-01 ]
      - [ 8.87144148e-01, -2.12123036e-01, 7.42955625e-01,
          1.37278759e+00, -3.90927017e-01, 9.14296150e-01,
          3.20411235e-01, 1.37144899e+00, -1.66399300e+00,
          -1.18507254e+00, -1.78384826e-01, -9.15072560e-01 ]
      - [ -6.89953446e-01, 2.61744094e+00, 2.18689919e+00,
          -6.73140824e-01, -6.85551643e-01, -5.21742344e-01,
          -9.00618553e-01, -7.84513414e-01, -8.64575088e-01,
          -1.44753385e+00, 5.53881884e-01, -9.85098541e-01 ]
      - [ 1.36298382e+00, -2.74801329e-02, 2.29243457e-01,
          4.10134703e-01, -1.40354943e+00, -6.17013812e-01,
          -1.00710869e+00, -8.62021685e-01, -3.87476623e-01,
          -4.53189224e-01, 5.19488811e-01, -5.59264898e-01 ]
      - [ -7.24527538e-01, -1.44152725e+00, -1.11722064e+00,
          -3.18177134e-01, -1.41790330e+00, -3.23763371e-01,
          1.91219294e+00, 1.83988142e+00, 3.60765964e-01, 7.78181612e-01,
          -3.30421138e+00, 5.72660089e-01 ]
      - [ -8.73696804e-01, -7.73283362e-01, -7.62712479e-01,
          -1.17958474e+00, -8.68189454e-01, -9.05534565e-01,
          -1.48296928e+00, -1.73790097e+00, 2.00787926e+00,
          1.45580792e+00, 1.19200528e+00, 1.48092127e+00 ]
      - [ 8.81878495e-01, -1.97882742e-01, 4.00088996e-01,
          1.34391689e+00, -6.02749169e-01, 5.41181386e-01,
          4.23319149e+00, 3.35254526e+00, -2.16672039e+00,
          -1.49362206e+00, -4.01928806e+00, -9.94258106e-01 ]
      - [ -9.20326054e-01, -1.87368953e+00, -1.76435280e+00,
          -5.66525698e-01, -2.42991519e+00, -1.54919553e+00,
          -5.62007546e-01, -6.91369116e-01, 1.79156768e+00,
          2.25347638e+00, -1.14275742e+00, 2.80967855e+00 ]
      - [ -9.72374201e-01, 4.40692425e-01, 7.97587216e-01,
          -1.03174281e+00, 8.84150386e-01, 1.02882874e+00,
          -5.06001592e-01, -5.88136733e-01, 8.71760622e-02,
          -2.28512362e-02, 7.95536995e-01, -2.39723876e-01 ]
      - [ 9.46877539e-01, -5.29839754e-01, 6.03659332e-01,
          2.16055822e+00, 4.79558706e-01, 1.90784812e+00, 1.56122732e+00,
          8.56379032e-01, -5.20115852e-01, -4.32104766e-01,
          -4.80635226e-01, -5.45512438e-01 ]
      - [ 5.53013146e-01, -2.31066242e-01, 2.99887419e-01,
          5.64593554e-01, 1.24956921e-01, 5.59888005e-01, 3.94340724e-01,
          7.16401339e-01, -3.87377560e-01, 6.45319559e-03,
          -8.99547860e-02, -2.14992970e-01 ]
      - [ 5.35330594e-01, 3.71407241e-01, -1.37775731e+00,
          -3.24593812e-01, -4.17584300e-01, -1.96764195e+00,
          -9.07849252e-01, -4.88697916e-01, -5.43532848e-01,
          -6.48314714e-01, 5.05708575e-01, -6.77230000e-01 ]
      - [ 1.41802236e-01, 3.91154200e-01, 3.76951486e-01, 4.79427427e-01,
          1.40914369e+00, 6.01855040e-01, 1.01177847e+00, 5.41152656e-01,
          -2.31999457e-02, 3.73837948e-01, -5.01101576e-02,
          1.27203301e-01 ]
      - [ -8.79421607e-02, -1.02952111e+00, -1.07448232e+00,
          4.86779630e-01, -6.79260433e-01, -6.70975745e-01,
          1.80325842e+00, 1.22792971e+00, -1.31075650e-01,
          4.77236584e-02, -2.29495668e+00, -1.79521054e-01 ]
      - [ -3.26106638e-01, -7.79664934e-01, -4.47380692e-02,
          7.67838061e-01, -3.33658695e-01, 1.13141584e+00,
          1.72260925e-01, 6.66717254e-03, 2.30361983e-01,
          -2.75654554e-01, -3.32454443e-02, -4.37339842e-01 ]
      - [ 9.29095030e-01, -1.81845829e-01, 2.14767829e-01,
          7.38733530e-01, -3.44718456e-01, 3.54050457e-01,
          3.33571196e-01, 4.25998479e-01, -2.50394642e-01,
          -1.53722763e-01, -2.89494872e-01, -3.45546097e-01 ]
      - [ 1.30105543e+00, -2.23300666e-01, 3.65264714e-01,
          2.16478848e+00, 2.36012608e-01, 1.22491860e+00, 3.06765586e-01,
          2.73655623e-01, -6.98384941e-01, -5.47680140e-01,
          1.70706928e-01, -6.18488014e-01 ]
      - [ -2.36378521e-01, -5.40944576e-01, 1.77434415e-01,
          4.15481985e-01, 7.51686335e-01, 1.52256191e+00,
          -4.10472453e-01, -6.87309623e-01, 1.04122674e+00,
          1.08436501e+00, 7.85533190e-01, 9.57966864e-01 ]
      - [ 1.80476153e+00, 2.75315583e-01, -4.82278205e-02,
          1.51922762e+00, -2.31549777e-02, -5.35006106e-01,
          -1.44469097e-01, 2.85204172e-01, -4.78513420e-01,
          -7.44398907e-02, 1.90405592e-01, -2.82340527e-01 ]
      - [ 6.72642708e-01, -9.89796221e-02, -1.01453054e+00,
          1.17280185e+00, 9.95528102e-01, -5.69247782e-01,
          5.59072375e-01, 5.34419537e-01, 8.64676163e-02, 1.92296579e-01,
          -2.54309271e-02, -4.93338332e-02 ]
      - [ -1.12521005e+00, -1.26535773e+00, -1.08980119e+00,
          -1.25507867e+00, -1.35755301e+00, -7.48675406e-01,
          1.12551391e+00, 1.68835986e+00, -5.97514689e-01,
          -4.32527393e-01, -2.51726723e+00, -5.45790017e-01 ]
      - [ 1.08356047e+00, 7.55243182e-01, -1.09537065e+00,
          -2.18220949e-01, -9.77896452e-01, -1.72253585e+00,
          -3.14518124e-01, -4.57598478e-01, 4.97934669e-02,
          -1.08328319e+00, -5.07510364e-01, -8.79735649e-01 ]
      - [ 7.50076711e-01, -3.24156195e-01, 4.77302760e-01,
          1.52194297e+00, -2.24735498e-01, 1.09096956e+00,
          3.71678925e+00, 2.74920726e+00, -1.60143924e+00,
          -1.37441301e+00, -2.84765625e+00, -9.68643606e-01 ]
      - [ -1.05766666e+00, 1.23624098e+00, 1.01609397e+00,
          -1.39814043e+00, -1.21861720e+00, -1.11935782e+00,
          -8.19861054e-01, -6.97318375e-01, -5.60409546e-01,
          -1.18881905e+00, 1.22791745e-01, -9.16285932e-01 ]
      - [ 9.26315263e-02, -8.19005370e-01, -4.56206828e-01,
          8.70316029e-01, -2.36880198e-01, 6.33137763e-01,
          6.42619193e-01, 3.10139716e-01, 3.38060148e-02, 1.36643812e-01,
          -4.50999737e-01, -1.00540534e-01 ]
      - [ -7.99610436e-01, 5.36909938e-01, 1.22020805e+00,
          -7.92194545e-01, 1.81010520e+00, 1.97434449e+00,
          1.43284313e-02, -2.72775054e-01, 5.28538942e-01,
          7.92024493e-01, 7.44764805e-01, 5.89187562e-01 ]
      - [ 1.83268023e+00, 1.52867520e+00, -3.63637984e-01,
          7.69313797e-02, -3.30730796e-01, -1.72872174e+00,
          -1.20216727e+00, -1.34525955e+00, 6.64189398e-01,
          -1.04519081e+00, 9.26477969e-01, -8.65336180e-01 ]
      - [ 1.26970816e+00, 6.28624320e-01, 1.16946602e+00, 6.56389177e-01,
          -1.92987990e+00, -7.66098976e-01, 4.34759915e-01,
          1.76703465e+00, -2.37190080e+00, -1.66526079e+00,
          -1.96970117e+00, -1.02012587e+00 ]
      - [ 1.10788077e-01, -2.65275925e-01, -1.67122042e+00,
          -8.55974257e-02, -6.49407730e-02, -2.30813694e+00,
          -1.10163319e+00, -8.89084935e-01, 7.49798357e-01,
          7.98642099e-01, 8.33276391e-01, 5.97118378e-01 ]
      - [ 1.09021199e+00, -3.49893034e-01, -1.44173712e-01,
          1.83484256e+00, -6.09026909e-01, 9.49787021e-01,
          2.34468794e+00, 1.58529079e+00, -1.56185341e+00,
          -1.43517578e+00, -2.08969879e+00, -9.82483149e-01 ]
      - [ 2.29856983e-01, 1.26549721e-01, 4.84513432e-01, 2.93129105e-02,
          9.33754221e-02, 3.06261808e-01, 1.41307044e+00, 1.37620842e+00,
          -1.09755123e+00, -7.15155959e-01, -1.04383254e+00,
          -7.13776886e-01 ]
      - [ 1.40892267e-01, 7.03062296e-01, 2.83501565e-01,
          -1.32576957e-01, -4.22393024e-01, -1.02018261e+00,
          -1.37777996e+00, -1.34556293e+00, 5.58493495e-01,
          -9.14547741e-02, 1.15737271e+00, -2.96138763e-01 ]
      - [ 1.77428097e-01, -3.80262792e-01, -1.95062190e-01,
          2.28715509e-01, 2.87447393e-01, 1.34146526e-01, 2.26721451e-01,
          4.78104591e-01, -2.98118979e-01, -1.14202291e-01,
          3.78192738e-02, -3.14386398e-01 ]
      - [ 1.22521198e+00, 3.29658985e-02, 8.69441330e-01, 1.55747962e+00,
          3.87919992e-01, 1.28235281e+00, 5.59973061e-01, 1.08623016e+00,
          -1.53285229e+00, -1.14759684e+00, 3.49934213e-02,
          -9.02594268e-01 ]
      - [ 1.80145383e+00, 8.85204822e-02, 3.26377273e-01, 2.11437821e+00,
          -2.25335613e-01, 1.02353477e+00, 8.55594933e-01,
          8.41802239e-01, -1.38356543e+00, -1.41947806e+00,
          -4.76832956e-01, -9.79063869e-01 ]
      - [ -4.86632437e-01, 2.44443130e+00, 3.63385606e+00,
          -1.03562558e+00, 2.23504496e+00, 2.17524886e+00,
          -4.43598539e-01, -1.09638953e+00, 9.83516276e-01,
          -6.62861347e-01, 1.06797791e+00, -6.85351491e-01 ]
      - [ 9.09511685e-01, -3.86760652e-01, 7.45197162e-02,
          1.30620420e+00, -2.52428532e-01, 4.82995749e-01,
          1.02433455e+00, 1.35680687e+00, -8.40185225e-01,
          -3.12272221e-01, -7.79322863e-01, -4.63625968e-01 ]
      - [ 8.86020005e-01, 5.59669919e-03, 3.42736810e-01, 5.53977430e-01,
          -2.10134029e-01, 3.88404988e-02, 1.35770929e+00,
          1.33275783e+00, -6.36697292e-01, 1.09888678e-02,
          -1.20560920e+00, -2.11131319e-01 ]
      - [ -1.47449255e+00, -2.07018566e+00, -1.78741705e+00,
          -1.34507990e+00, -2.74358010e+00, -1.27217746e+00,
          3.26134890e-01, 1.69410720e-01, 1.50364506e+00, 1.85553670e+00,
          -3.57217336e+00, 2.11170053e+00 ]
      - [ -1.02436996e+00, -3.75281602e-01, 1.16843417e-01,
          -9.24805105e-01, 5.30976355e-01, 1.21020794e+00,
          -7.57406056e-01, -8.40203047e-01, 6.92618370e-01,
          5.34026504e-01, 9.24724340e-01, 2.95051962e-01 ]
      - [ -1.05020270e-01, 8.49013269e-01, -3.66322339e-01,
